digraph Tree {
node [shape=box, style="filled, rounded", color="black", fontname="helvetica"] ;
edge [fontname="helvetica"] ;
0 [label=<Feature 2 &le; 64.5<br/>gini = 0.495<br/>samples = 1537<br/>value = [694.0, 843.0]<br/>class = Clase 1>, fillcolor="#dceefa"] ;
1 [label=<Feature 1 &le; -3.5<br/>gini = 0.228<br/>samples = 183<br/>value = [24, 159]<br/>class = Clase 1>, fillcolor="#57ace9"] ;
0 -> 1 [labeldistance=2.5, labelangle=45, headlabel="True"] ;
2 [label=<Feature 2 &le; 34.5<br/>gini = 0.138<br/>samples = 147<br/>value = [11, 136]<br/>class = Clase 1>, fillcolor="#49a5e7"] ;
1 -> 2 ;
3 [label=<gini = 0.0<br/>samples = 76<br/>value = [0, 76]<br/>class = Clase 1>, fillcolor="#399de5"] ;
2 -> 3 ;
4 [label=<Feature 1 &le; -4.5<br/>gini = 0.262<br/>samples = 71<br/>value = [11, 60]<br/>class = Clase 1>, fillcolor="#5dafea"] ;
2 -> 4 ;
5 [label=<Feature 1 &le; -5.5<br/>gini = 0.329<br/>samples = 53<br/>value = [11, 42]<br/>class = Clase 1>, fillcolor="#6db7ec"] ;
4 -> 5 ;
6 [label=<gini = 0.0<br/>samples = 11<br/>value = [0, 11]<br/>class = Clase 1>, fillcolor="#399de5"] ;
5 -> 6 ;
7 [label=<Feature 2 &le; 52.5<br/>gini = 0.387<br/>samples = 42<br/>value = [11, 31]<br/>class = Clase 1>, fillcolor="#7fc0ee"] ;
5 -> 7 ;
8 [label=<Feature 2 &le; 37.5<br/>gini = 0.342<br/>samples = 32<br/>value = [7, 25]<br/>class = Clase 1>, fillcolor="#70b8ec"] ;
7 -> 8 ;
9 [label=<gini = 0.408<br/>samples = 7<br/>value = [2, 5]<br/>class = Clase 1>, fillcolor="#88c4ef"] ;
8 -> 9 ;
10 [label=<Feature 2 &le; 42.5<br/>gini = 0.32<br/>samples = 25<br/>value = [5, 20]<br/>class = Clase 1>, fillcolor="#6ab6ec"] ;
8 -> 10 ;
11 [label=<gini = 0.219<br/>samples = 8<br/>value = [1, 7]<br/>class = Clase 1>, fillcolor="#55abe9"] ;
10 -> 11 ;
12 [label=<Feature 2 &le; 47.5<br/>gini = 0.36<br/>samples = 17<br/>value = [4, 13]<br/>class = Clase 1>, fillcolor="#76bbed"] ;
10 -> 12 ;
13 [label=<gini = 0.375<br/>samples = 8<br/>value = [2, 6]<br/>class = Clase 1>, fillcolor="#7bbeee"] ;
12 -> 13 ;
14 [label=<gini = 0.346<br/>samples = 9<br/>value = [2, 7]<br/>class = Clase 1>, fillcolor="#72b9ec"] ;
12 -> 14 ;
15 [label=<Feature 2 &le; 57.5<br/>gini = 0.48<br/>samples = 10<br/>value = [4, 6]<br/>class = Clase 1>, fillcolor="#bddef6"] ;
7 -> 15 ;
16 [label=<gini = 0.48<br/>samples = 5<br/>value = [2, 3]<br/>class = Clase 1>, fillcolor="#bddef6"] ;
15 -> 16 ;
17 [label=<gini = 0.48<br/>samples = 5<br/>value = [2, 3]<br/>class = Clase 1>, fillcolor="#bddef6"] ;
15 -> 17 ;
18 [label=<gini = 0.0<br/>samples = 18<br/>value = [0, 18]<br/>class = Clase 1>, fillcolor="#399de5"] ;
4 -> 18 ;
19 [label=<Feature 2 &le; 21.5<br/>gini = 0.461<br/>samples = 36<br/>value = [13, 23]<br/>class = Clase 1>, fillcolor="#a9d4f4"] ;
1 -> 19 ;
20 [label=<gini = 0.0<br/>samples = 10<br/>value = [0, 10]<br/>class = Clase 1>, fillcolor="#399de5"] ;
19 -> 20 ;
21 [label=<Feature 2 &le; 38.5<br/>gini = 0.5<br/>samples = 26<br/>value = [13, 13]<br/>class = Clase 0>, fillcolor="#ffffff"] ;
19 -> 21 ;
22 [label=<Feature 2 &le; 27.0<br/>gini = 0.42<br/>samples = 10<br/>value = [7, 3]<br/>class = Clase 0>, fillcolor="#f0b78e"] ;
21 -> 22 ;
23 [label=<gini = 0.0<br/>samples = 2<br/>value = [2, 0]<br/>class = Clase 0>, fillcolor="#e58139"] ;
22 -> 23 ;
24 [label=<Feature 2 &le; 28.5<br/>gini = 0.469<br/>samples = 8<br/>value = [5, 3]<br/>class = Clase 0>, fillcolor="#f5cdb0"] ;
22 -> 24 ;
25 [label=<gini = 0.0<br/>samples = 1<br/>value = [0, 1]<br/>class = Clase 1>, fillcolor="#399de5"] ;
24 -> 25 ;
26 [label=<Feature 2 &le; 34.5<br/>gini = 0.408<br/>samples = 7<br/>value = [5, 2]<br/>class = Clase 0>, fillcolor="#efb388"] ;
24 -> 26 ;
27 [label=<Feature 2 &le; 30.0<br/>gini = 0.48<br/>samples = 5<br/>value = [3, 2]<br/>class = Clase 0>, fillcolor="#f6d5bd"] ;
26 -> 27 ;
28 [label=<gini = 0.0<br/>samples = 1<br/>value = [1, 0]<br/>class = Clase 0>, fillcolor="#e58139"] ;
27 -> 28 ;
29 [label=<Feature 2 &le; 31.5<br/>gini = 0.5<br/>samples = 4<br/>value = [2, 2]<br/>class = Clase 0>, fillcolor="#ffffff"] ;
27 -> 29 ;
30 [label=<gini = 0.0<br/>samples = 1<br/>value = [0, 1]<br/>class = Clase 1>, fillcolor="#399de5"] ;
29 -> 30 ;
31 [label=<Feature 2 &le; 33.0<br/>gini = 0.444<br/>samples = 3<br/>value = [2, 1]<br/>class = Clase 0>, fillcolor="#f2c09c"] ;
29 -> 31 ;
32 [label=<gini = 0.0<br/>samples = 1<br/>value = [1, 0]<br/>class = Clase 0>, fillcolor="#e58139"] ;
31 -> 32 ;
33 [label=<gini = 0.5<br/>samples = 2<br/>value = [1, 1]<br/>class = Clase 0>, fillcolor="#ffffff"] ;
31 -> 33 ;
34 [label=<gini = 0.0<br/>samples = 2<br/>value = [2, 0]<br/>class = Clase 0>, fillcolor="#e58139"] ;
26 -> 34 ;
35 [label=<Feature 2 &le; 62.5<br/>gini = 0.469<br/>samples = 16<br/>value = [6, 10]<br/>class = Clase 1>, fillcolor="#b0d8f5"] ;
21 -> 35 ;
36 [label=<Feature 2 &le; 53.5<br/>gini = 0.48<br/>samples = 15<br/>value = [6, 9]<br/>class = Clase 1>, fillcolor="#bddef6"] ;
35 -> 36 ;
37 [label=<Feature 2 &le; 46.5<br/>gini = 0.444<br/>samples = 9<br/>value = [3, 6]<br/>class = Clase 1>, fillcolor="#9ccef2"] ;
36 -> 37 ;
38 [label=<Feature 2 &le; 43.5<br/>gini = 0.49<br/>samples = 7<br/>value = [3, 4]<br/>class = Clase 1>, fillcolor="#cee6f8"] ;
37 -> 38 ;
39 [label=<Feature 2 &le; 41.5<br/>gini = 0.5<br/>samples = 4<br/>value = [2, 2]<br/>class = Clase 0>, fillcolor="#ffffff"] ;
38 -> 39 ;
40 [label=<gini = 0.5<br/>samples = 2<br/>value = [1, 1]<br/>class = Clase 0>, fillcolor="#ffffff"] ;
39 -> 40 ;
41 [label=<gini = 0.5<br/>samples = 2<br/>value = [1, 1]<br/>class = Clase 0>, fillcolor="#ffffff"] ;
39 -> 41 ;
42 [label=<Feature 2 &le; 45.0<br/>gini = 0.444<br/>samples = 3<br/>value = [1, 2]<br/>class = Clase 1>, fillcolor="#9ccef2"] ;
38 -> 42 ;
43 [label=<gini = 0.0<br/>samples = 1<br/>value = [0, 1]<br/>class = Clase 1>, fillcolor="#399de5"] ;
42 -> 43 ;
44 [label=<gini = 0.5<br/>samples = 2<br/>value = [1, 1]<br/>class = Clase 0>, fillcolor="#ffffff"] ;
42 -> 44 ;
45 [label=<gini = 0.0<br/>samples = 2<br/>value = [0, 2]<br/>class = Clase 1>, fillcolor="#399de5"] ;
37 -> 45 ;
46 [label=<Feature 2 &le; 56.5<br/>gini = 0.5<br/>samples = 6<br/>value = [3, 3]<br/>class = Clase 0>, fillcolor="#ffffff"] ;
36 -> 46 ;
47 [label=<gini = 0.5<br/>samples = 2<br/>value = [1, 1]<br/>class = Clase 0>, fillcolor="#ffffff"] ;
46 -> 47 ;
48 [label=<Feature 2 &le; 59.5<br/>gini = 0.5<br/>samples = 4<br/>value = [2, 2]<br/>class = Clase 0>, fillcolor="#ffffff"] ;
46 -> 48 ;
49 [label=<gini = 0.5<br/>samples = 2<br/>value = [1, 1]<br/>class = Clase 0>, fillcolor="#ffffff"] ;
48 -> 49 ;
50 [label=<gini = 0.5<br/>samples = 2<br/>value = [1, 1]<br/>class = Clase 0>, fillcolor="#ffffff"] ;
48 -> 50 ;
51 [label=<gini = 0.0<br/>samples = 1<br/>value = [0, 1]<br/>class = Clase 1>, fillcolor="#399de5"] ;
35 -> 51 ;
52 [label=<Feature 2 &le; 255.5<br/>gini = 0.5<br/>samples = 1354<br/>value = [670, 684]<br/>class = Clase 1>, fillcolor="#fbfdfe"] ;
0 -> 52 [labeldistance=2.5, labelangle=-45, headlabel="False"] ;
53 [label=<Feature 1 &le; -3.5<br/>gini = 0.408<br/>samples = 410<br/>value = [293.0, 117.0]<br/>class = Clase 0>, fillcolor="#efb388"] ;
52 -> 53 ;
54 [label=<Feature 1 &le; -4.5<br/>gini = 0.449<br/>samples = 312<br/>value = [206, 106]<br/>class = Clase 0>, fillcolor="#f2c29f"] ;
53 -> 54 ;
55 [label=<Feature 2 &le; 102.5<br/>gini = 0.405<br/>samples = 234<br/>value = [168, 66]<br/>class = Clase 0>, fillcolor="#efb287"] ;
54 -> 55 ;
56 [label=<Feature 1 &le; -5.5<br/>gini = 0.498<br/>samples = 49<br/>value = [26, 23]<br/>class = Clase 0>, fillcolor="#fcf0e8"] ;
55 -> 56 ;
57 [label=<gini = 0.0<br/>samples = 9<br/>value = [0, 9]<br/>class = Clase 1>, fillcolor="#399de5"] ;
56 -> 57 ;
58 [label=<Feature 2 &le; 82.5<br/>gini = 0.455<br/>samples = 40<br/>value = [26, 14]<br/>class = Clase 0>, fillcolor="#f3c5a4"] ;
56 -> 58 ;
59 [label=<Feature 2 &le; 77.5<br/>gini = 0.49<br/>samples = 21<br/>value = [12, 9]<br/>class = Clase 0>, fillcolor="#f8e0ce"] ;
58 -> 59 ;
60 [label=<Feature 2 &le; 72.5<br/>gini = 0.484<br/>samples = 17<br/>value = [10, 7]<br/>class = Clase 0>, fillcolor="#f7d9c4"] ;
59 -> 60 ;
61 [label=<Feature 2 &le; 67.5<br/>gini = 0.496<br/>samples = 11<br/>value = [6, 5]<br/>class = Clase 0>, fillcolor="#fbeade"] ;
60 -> 61 ;
62 [label=<gini = 0.48<br/>samples = 5<br/>value = [3, 2]<br/>class = Clase 0>, fillcolor="#f6d5bd"] ;
61 -> 62 ;
63 [label=<gini = 0.5<br/>samples = 6<br/>value = [3, 3]<br/>class = Clase 0>, fillcolor="#ffffff"] ;
61 -> 63 ;
64 [label=<gini = 0.444<br/>samples = 6<br/>value = [4, 2]<br/>class = Clase 0>, fillcolor="#f2c09c"] ;
60 -> 64 ;
65 [label=<gini = 0.5<br/>samples = 4<br/>value = [2, 2]<br/>class = Clase 0>, fillcolor="#ffffff"] ;
59 -> 65 ;
66 [label=<Feature 2 &le; 92.5<br/>gini = 0.388<br/>samples = 19<br/>value = [14, 5]<br/>class = Clase 0>, fillcolor="#eeae80"] ;
58 -> 66 ;
67 [label=<Feature 2 &le; 87.5<br/>gini = 0.42<br/>samples = 10<br/>value = [7, 3]<br/>class = Clase 0>, fillcolor="#f0b78e"] ;
66 -> 67 ;
68 [label=<gini = 0.375<br/>samples = 4<br/>value = [3, 1]<br/>class = Clase 0>, fillcolor="#eeab7b"] ;
67 -> 68 ;
69 [label=<gini = 0.444<br/>samples = 6<br/>value = [4, 2]<br/>class = Clase 0>, fillcolor="#f2c09c"] ;
67 -> 69 ;
70 [label=<Feature 2 &le; 97.5<br/>gini = 0.346<br/>samples = 9<br/>value = [7, 2]<br/>class = Clase 0>, fillcolor="#eca572"] ;
66 -> 70 ;
71 [label=<gini = 0.375<br/>samples = 4<br/>value = [3, 1]<br/>class = Clase 0>, fillcolor="#eeab7b"] ;
70 -> 71 ;
72 [label=<gini = 0.32<br/>samples = 5<br/>value = [4, 1]<br/>class = Clase 0>, fillcolor="#eca06a"] ;
70 -> 72 ;
73 [label=<Feature 2 &le; 179.0<br/>gini = 0.357<br/>samples = 185<br/>value = [142, 43]<br/>class = Clase 0>, fillcolor="#eda775"] ;
55 -> 73 ;
74 [label=<Feature 1 &le; -7.0<br/>gini = 0.233<br/>samples = 89<br/>value = [77, 12]<br/>class = Clase 0>, fillcolor="#e99558"] ;
73 -> 74 ;
75 [label=<Feature 2 &le; 144.0<br/>gini = 0.49<br/>samples = 7<br/>value = [4, 3]<br/>class = Clase 0>, fillcolor="#f8e0ce"] ;
74 -> 75 ;
76 [label=<gini = 0.0<br/>samples = 3<br/>value = [0, 3]<br/>class = Clase 1>, fillcolor="#399de5"] ;
75 -> 76 ;
77 [label=<gini = 0.0<br/>samples = 4<br/>value = [4, 0]<br/>class = Clase 0>, fillcolor="#e58139"] ;
75 -> 77 ;
78 [label=<Feature 2 &le; 124.5<br/>gini = 0.195<br/>samples = 82<br/>value = [73, 9]<br/>class = Clase 0>, fillcolor="#e89151"] ;
74 -> 78 ;
79 [label=<Feature 1 &le; -5.5<br/>gini = 0.077<br/>samples = 25<br/>value = [24, 1]<br/>class = Clase 0>, fillcolor="#e68641"] ;
78 -> 79 ;
80 [label=<Feature 2 &le; 109.0<br/>gini = 0.375<br/>samples = 4<br/>value = [3, 1]<br/>class = Clase 0>, fillcolor="#eeab7b"] ;
79 -> 80 ;
81 [label=<gini = 0.0<br/>samples = 1<br/>value = [0, 1]<br/>class = Clase 1>, fillcolor="#399de5"] ;
80 -> 81 ;
82 [label=<gini = 0.0<br/>samples = 3<br/>value = [3, 0]<br/>class = Clase 0>, fillcolor="#e58139"] ;
80 -> 82 ;
83 [label=<gini = 0.0<br/>samples = 21<br/>value = [21, 0]<br/>class = Clase 0>, fillcolor="#e58139"] ;
79 -> 83 ;
84 [label=<Feature 2 &le; 127.5<br/>gini = 0.241<br/>samples = 57<br/>value = [49, 8]<br/>class = Clase 0>, fillcolor="#e99659"] ;
78 -> 84 ;
85 [label=<gini = 0.5<br/>samples = 2<br/>value = [1, 1]<br/>class = Clase 0>, fillcolor="#ffffff"] ;
84 -> 85 ;
86 [label=<Feature 1 &le; -5.5<br/>gini = 0.222<br/>samples = 55<br/>value = [48.0, 7.0]<br/>class = Clase 0>, fillcolor="#e99356"] ;
84 -> 86 ;
87 [label=<gini = 0.0<br/>samples = 7<br/>value = [7, 0]<br/>class = Clase 0>, fillcolor="#e58139"] ;
86 -> 87 ;
88 [label=<Feature 2 &le; 162.5<br/>gini = 0.249<br/>samples = 48<br/>value = [41, 7]<br/>class = Clase 0>, fillcolor="#e9975b"] ;
86 -> 88 ;
89 [label=<Feature 2 &le; 142.5<br/>gini = 0.202<br/>samples = 35<br/>value = [31, 4]<br/>class = Clase 0>, fillcolor="#e89153"] ;
88 -> 89 ;
90 [label=<Feature 2 &le; 137.5<br/>gini = 0.305<br/>samples = 16<br/>value = [13, 3]<br/>class = Clase 0>, fillcolor="#eb9e67"] ;
89 -> 90 ;
91 [label=<Feature 2 &le; 132.5<br/>gini = 0.278<br/>samples = 12<br/>value = [10, 2]<br/>class = Clase 0>, fillcolor="#ea9a61"] ;
90 -> 91 ;
92 [label=<gini = 0.278<br/>samples = 6<br/>value = [5, 1]<br/>class = Clase 0>, fillcolor="#ea9a61"] ;
91 -> 92 ;
93 [label=<gini = 0.278<br/>samples = 6<br/>value = [5, 1]<br/>class = Clase 0>, fillcolor="#ea9a61"] ;
91 -> 93 ;
94 [label=<gini = 0.375<br/>samples = 4<br/>value = [3, 1]<br/>class = Clase 0>, fillcolor="#eeab7b"] ;
90 -> 94 ;
95 [label=<Feature 2 &le; 152.5<br/>gini = 0.1<br/>samples = 19<br/>value = [18, 1]<br/>class = Clase 0>, fillcolor="#e68844"] ;
89 -> 95 ;
96 [label=<gini = 0.0<br/>samples = 9<br/>value = [9, 0]<br/>class = Clase 0>, fillcolor="#e58139"] ;
95 -> 96 ;
97 [label=<Feature 2 &le; 157.5<br/>gini = 0.18<br/>samples = 10<br/>value = [9, 1]<br/>class = Clase 0>, fillcolor="#e88f4f"] ;
95 -> 97 ;
98 [label=<gini = 0.32<br/>samples = 5<br/>value = [4, 1]<br/>class = Clase 0>, fillcolor="#eca06a"] ;
97 -> 98 ;
99 [label=<gini = 0.0<br/>samples = 5<br/>value = [5, 0]<br/>class = Clase 0>, fillcolor="#e58139"] ;
97 -> 99 ;
100 [label=<Feature 2 &le; 167.5<br/>gini = 0.355<br/>samples = 13<br/>value = [10, 3]<br/>class = Clase 0>, fillcolor="#eda774"] ;
88 -> 100 ;
101 [label=<gini = 0.32<br/>samples = 5<br/>value = [4, 1]<br/>class = Clase 0>, fillcolor="#eca06a"] ;
100 -> 101 ;
102 [label=<Feature 2 &le; 172.5<br/>gini = 0.375<br/>samples = 8<br/>value = [6, 2]<br/>class = Clase 0>, fillcolor="#eeab7b"] ;
100 -> 102 ;
103 [label=<gini = 0.375<br/>samples = 4<br/>value = [3, 1]<br/>class = Clase 0>, fillcolor="#eeab7b"] ;
102 -> 103 ;
104 [label=<gini = 0.375<br/>samples = 4<br/>value = [3, 1]<br/>class = Clase 0>, fillcolor="#eeab7b"] ;
102 -> 104 ;
105 [label=<Feature 1 &le; -7.0<br/>gini = 0.437<br/>samples = 96<br/>value = [65, 31]<br/>class = Clase 0>, fillcolor="#f1bd97"] ;
73 -> 105 ;
106 [label=<gini = 0.0<br/>samples = 9<br/>value = [9, 0]<br/>class = Clase 0>, fillcolor="#e58139"] ;
105 -> 106 ;
107 [label=<Feature 1 &le; -5.5<br/>gini = 0.459<br/>samples = 87<br/>value = [56, 31]<br/>class = Clase 0>, fillcolor="#f3c7a7"] ;
105 -> 107 ;
108 [label=<Feature 2 &le; 214.0<br/>gini = 0.494<br/>samples = 9<br/>value = [4, 5]<br/>class = Clase 1>, fillcolor="#d7ebfa"] ;
107 -> 108 ;
109 [label=<gini = 0.0<br/>samples = 4<br/>value = [4, 0]<br/>class = Clase 0>, fillcolor="#e58139"] ;
108 -> 109 ;
110 [label=<gini = 0.0<br/>samples = 5<br/>value = [0, 5]<br/>class = Clase 1>, fillcolor="#399de5"] ;
108 -> 110 ;
111 [label=<Feature 2 &le; 187.5<br/>gini = 0.444<br/>samples = 78<br/>value = [52, 26]<br/>class = Clase 0>, fillcolor="#f2c09c"] ;
107 -> 111 ;
112 [label=<Feature 2 &le; 182.5<br/>gini = 0.494<br/>samples = 9<br/>value = [5, 4]<br/>class = Clase 0>, fillcolor="#fae6d7"] ;
111 -> 112 ;
113 [label=<gini = 0.48<br/>samples = 5<br/>value = [3, 2]<br/>class = Clase 0>, fillcolor="#f6d5bd"] ;
112 -> 113 ;
114 [label=<gini = 0.5<br/>samples = 4<br/>value = [2, 2]<br/>class = Clase 0>, fillcolor="#ffffff"] ;
112 -> 114 ;
115 [label=<Feature 2 &le; 247.5<br/>gini = 0.434<br/>samples = 69<br/>value = [47.0, 22.0]<br/>class = Clase 0>, fillcolor="#f1bc96"] ;
111 -> 115 ;
116 [label=<Feature 2 &le; 232.5<br/>gini = 0.424<br/>samples = 59<br/>value = [41, 18]<br/>class = Clase 0>, fillcolor="#f0b890"] ;
115 -> 116 ;
117 [label=<Feature 2 &le; 217.5<br/>gini = 0.444<br/>samples = 45<br/>value = [30, 15]<br/>class = Clase 0>, fillcolor="#f2c09c"] ;
116 -> 117 ;
118 [label=<Feature 2 &le; 207.5<br/>gini = 0.451<br/>samples = 32<br/>value = [21, 11]<br/>class = Clase 0>, fillcolor="#f3c3a1"] ;
117 -> 118 ;
119 [label=<Feature 2 &le; 202.5<br/>gini = 0.434<br/>samples = 22<br/>value = [15.0, 7.0]<br/>class = Clase 0>, fillcolor="#f1bc95"] ;
118 -> 119 ;
120 [label=<Feature 2 &le; 192.5<br/>gini = 0.444<br/>samples = 18<br/>value = [12, 6]<br/>class = Clase 0>, fillcolor="#f2c09c"] ;
119 -> 120 ;
121 [label=<gini = 0.444<br/>samples = 6<br/>value = [4, 2]<br/>class = Clase 0>, fillcolor="#f2c09c"] ;
120 -> 121 ;
122 [label=<Feature 2 &le; 197.5<br/>gini = 0.444<br/>samples = 12<br/>value = [8, 4]<br/>class = Clase 0>, fillcolor="#f2c09c"] ;
120 -> 122 ;
123 [label=<gini = 0.444<br/>samples = 6<br/>value = [4, 2]<br/>class = Clase 0>, fillcolor="#f2c09c"] ;
122 -> 123 ;
124 [label=<gini = 0.444<br/>samples = 6<br/>value = [4, 2]<br/>class = Clase 0>, fillcolor="#f2c09c"] ;
122 -> 124 ;
125 [label=<gini = 0.375<br/>samples = 4<br/>value = [3, 1]<br/>class = Clase 0>, fillcolor="#eeab7b"] ;
119 -> 125 ;
126 [label=<Feature 2 &le; 212.5<br/>gini = 0.48<br/>samples = 10<br/>value = [6, 4]<br/>class = Clase 0>, fillcolor="#f6d5bd"] ;
118 -> 126 ;
127 [label=<gini = 0.48<br/>samples = 5<br/>value = [3, 2]<br/>class = Clase 0>, fillcolor="#f6d5bd"] ;
126 -> 127 ;
128 [label=<gini = 0.48<br/>samples = 5<br/>value = [3, 2]<br/>class = Clase 0>, fillcolor="#f6d5bd"] ;
126 -> 128 ;
129 [label=<Feature 2 &le; 222.5<br/>gini = 0.426<br/>samples = 13<br/>value = [9, 4]<br/>class = Clase 0>, fillcolor="#f1b991"] ;
117 -> 129 ;
130 [label=<gini = 0.375<br/>samples = 4<br/>value = [3, 1]<br/>class = Clase 0>, fillcolor="#eeab7b"] ;
129 -> 130 ;
131 [label=<Feature 2 &le; 227.5<br/>gini = 0.444<br/>samples = 9<br/>value = [6, 3]<br/>class = Clase 0>, fillcolor="#f2c09c"] ;
129 -> 131 ;
132 [label=<gini = 0.444<br/>samples = 6<br/>value = [4, 2]<br/>class = Clase 0>, fillcolor="#f2c09c"] ;
131 -> 132 ;
133 [label=<gini = 0.444<br/>samples = 3<br/>value = [2, 1]<br/>class = Clase 0>, fillcolor="#f2c09c"] ;
131 -> 133 ;
134 [label=<Feature 2 &le; 237.5<br/>gini = 0.337<br/>samples = 14<br/>value = [11, 3]<br/>class = Clase 0>, fillcolor="#eca36f"] ;
116 -> 134 ;
135 [label=<gini = 0.32<br/>samples = 5<br/>value = [4, 1]<br/>class = Clase 0>, fillcolor="#eca06a"] ;
134 -> 135 ;
136 [label=<Feature 2 &le; 242.5<br/>gini = 0.346<br/>samples = 9<br/>value = [7, 2]<br/>class = Clase 0>, fillcolor="#eca572"] ;
134 -> 136 ;
137 [label=<gini = 0.375<br/>samples = 4<br/>value = [3, 1]<br/>class = Clase 0>, fillcolor="#eeab7b"] ;
136 -> 137 ;
138 [label=<gini = 0.32<br/>samples = 5<br/>value = [4, 1]<br/>class = Clase 0>, fillcolor="#eca06a"] ;
136 -> 138 ;
139 [label=<Feature 2 &le; 252.5<br/>gini = 0.48<br/>samples = 10<br/>value = [6, 4]<br/>class = Clase 0>, fillcolor="#f6d5bd"] ;
115 -> 139 ;
140 [label=<gini = 0.48<br/>samples = 5<br/>value = [3, 2]<br/>class = Clase 0>, fillcolor="#f6d5bd"] ;
139 -> 140 ;
141 [label=<gini = 0.48<br/>samples = 5<br/>value = [3, 2]<br/>class = Clase 0>, fillcolor="#f6d5bd"] ;
139 -> 141 ;
142 [label=<Feature 2 &le; 250.0<br/>gini = 0.5<br/>samples = 78<br/>value = [38, 40]<br/>class = Clase 1>, fillcolor="#f5fafe"] ;
54 -> 142 ;
143 [label=<Feature 2 &le; 170.0<br/>gini = 0.499<br/>samples = 77<br/>value = [37.0, 40.0]<br/>class = Clase 1>, fillcolor="#f0f8fd"] ;
142 -> 143 ;
144 [label=<Feature 2 &le; 70.0<br/>gini = 0.498<br/>samples = 45<br/>value = [24, 21]<br/>class = Clase 0>, fillcolor="#fcefe6"] ;
143 -> 144 ;
145 [label=<gini = 0.0<br/>samples = 1<br/>value = [0, 1]<br/>class = Clase 1>, fillcolor="#399de5"] ;
144 -> 145 ;
146 [label=<Feature 2 &le; 150.0<br/>gini = 0.496<br/>samples = 44<br/>value = [24, 20]<br/>class = Clase 0>, fillcolor="#fbeade"] ;
144 -> 146 ;
147 [label=<Feature 2 &le; 82.0<br/>gini = 0.5<br/>samples = 37<br/>value = [19, 18]<br/>class = Clase 0>, fillcolor="#fef8f5"] ;
146 -> 147 ;
148 [label=<Feature 2 &le; 78.0<br/>gini = 0.48<br/>samples = 5<br/>value = [3, 2]<br/>class = Clase 0>, fillcolor="#f6d5bd"] ;
147 -> 148 ;
149 [label=<Feature 2 &le; 74.0<br/>gini = 0.5<br/>samples = 4<br/>value = [2, 2]<br/>class = Clase 0>, fillcolor="#ffffff"] ;
148 -> 149 ;
150 [label=<gini = 0.5<br/>samples = 2<br/>value = [1, 1]<br/>class = Clase 0>, fillcolor="#ffffff"] ;
149 -> 150 ;
151 [label=<gini = 0.5<br/>samples = 2<br/>value = [1, 1]<br/>class = Clase 0>, fillcolor="#ffffff"] ;
149 -> 151 ;
152 [label=<gini = 0.0<br/>samples = 1<br/>value = [1, 0]<br/>class = Clase 0>, fillcolor="#e58139"] ;
148 -> 152 ;
153 [label=<Feature 2 &le; 86.0<br/>gini = 0.5<br/>samples = 32<br/>value = [16, 16]<br/>class = Clase 0>, fillcolor="#ffffff"] ;
147 -> 153 ;
154 [label=<gini = 0.5<br/>samples = 2<br/>value = [1, 1]<br/>class = Clase 0>, fillcolor="#ffffff"] ;
153 -> 154 ;
155 [label=<Feature 2 &le; 90.0<br/>gini = 0.5<br/>samples = 30<br/>value = [15, 15]<br/>class = Clase 0>, fillcolor="#ffffff"] ;
153 -> 155 ;
156 [label=<gini = 0.5<br/>samples = 2<br/>value = [1, 1]<br/>class = Clase 0>, fillcolor="#ffffff"] ;
155 -> 156 ;
157 [label=<Feature 2 &le; 94.0<br/>gini = 0.5<br/>samples = 28<br/>value = [14, 14]<br/>class = Clase 0>, fillcolor="#ffffff"] ;
155 -> 157 ;
158 [label=<gini = 0.5<br/>samples = 2<br/>value = [1, 1]<br/>class = Clase 0>, fillcolor="#ffffff"] ;
157 -> 158 ;
159 [label=<Feature 2 &le; 98.0<br/>gini = 0.5<br/>samples = 26<br/>value = [13, 13]<br/>class = Clase 0>, fillcolor="#ffffff"] ;
157 -> 159 ;
160 [label=<gini = 0.5<br/>samples = 2<br/>value = [1, 1]<br/>class = Clase 0>, fillcolor="#ffffff"] ;
159 -> 160 ;
161 [label=<Feature 2 &le; 102.0<br/>gini = 0.5<br/>samples = 24<br/>value = [12, 12]<br/>class = Clase 0>, fillcolor="#ffffff"] ;
159 -> 161 ;
162 [label=<gini = 0.5<br/>samples = 2<br/>value = [1, 1]<br/>class = Clase 0>, fillcolor="#ffffff"] ;
161 -> 162 ;
163 [label=<Feature 2 &le; 106.0<br/>gini = 0.5<br/>samples = 22<br/>value = [11, 11]<br/>class = Clase 0>, fillcolor="#ffffff"] ;
161 -> 163 ;
164 [label=<gini = 0.5<br/>samples = 2<br/>value = [1, 1]<br/>class = Clase 0>, fillcolor="#ffffff"] ;
163 -> 164 ;
165 [label=<Feature 2 &le; 110.0<br/>gini = 0.5<br/>samples = 20<br/>value = [10, 10]<br/>class = Clase 0>, fillcolor="#ffffff"] ;
163 -> 165 ;
166 [label=<gini = 0.5<br/>samples = 2<br/>value = [1, 1]<br/>class = Clase 0>, fillcolor="#ffffff"] ;
165 -> 166 ;
167 [label=<Feature 2 &le; 114.0<br/>gini = 0.5<br/>samples = 18<br/>value = [9, 9]<br/>class = Clase 0>, fillcolor="#ffffff"] ;
165 -> 167 ;
168 [label=<gini = 0.5<br/>samples = 2<br/>value = [1, 1]<br/>class = Clase 0>, fillcolor="#ffffff"] ;
167 -> 168 ;
169 [label=<Feature 2 &le; 118.0<br/>gini = 0.5<br/>samples = 16<br/>value = [8, 8]<br/>class = Clase 0>, fillcolor="#ffffff"] ;
167 -> 169 ;
170 [label=<gini = 0.5<br/>samples = 2<br/>value = [1, 1]<br/>class = Clase 0>, fillcolor="#ffffff"] ;
169 -> 170 ;
171 [label=<Feature 2 &le; 122.0<br/>gini = 0.5<br/>samples = 14<br/>value = [7, 7]<br/>class = Clase 0>, fillcolor="#ffffff"] ;
169 -> 171 ;
172 [label=<gini = 0.5<br/>samples = 2<br/>value = [1, 1]<br/>class = Clase 0>, fillcolor="#ffffff"] ;
171 -> 172 ;
173 [label=<Feature 2 &le; 126.0<br/>gini = 0.5<br/>samples = 12<br/>value = [6, 6]<br/>class = Clase 0>, fillcolor="#ffffff"] ;
171 -> 173 ;
174 [label=<gini = 0.5<br/>samples = 2<br/>value = [1, 1]<br/>class = Clase 0>, fillcolor="#ffffff"] ;
173 -> 174 ;
175 [label=<Feature 2 &le; 130.0<br/>gini = 0.5<br/>samples = 10<br/>value = [5, 5]<br/>class = Clase 0>, fillcolor="#ffffff"] ;
173 -> 175 ;
176 [label=<gini = 0.5<br/>samples = 2<br/>value = [1, 1]<br/>class = Clase 0>, fillcolor="#ffffff"] ;
175 -> 176 ;
177 [label=<Feature 2 &le; 136.0<br/>gini = 0.5<br/>samples = 8<br/>value = [4, 4]<br/>class = Clase 0>, fillcolor="#ffffff"] ;
175 -> 177 ;
178 [label=<gini = 0.5<br/>samples = 2<br/>value = [1, 1]<br/>class = Clase 0>, fillcolor="#ffffff"] ;
177 -> 178 ;
179 [label=<Feature 2 &le; 142.0<br/>gini = 0.5<br/>samples = 6<br/>value = [3, 3]<br/>class = Clase 0>, fillcolor="#ffffff"] ;
177 -> 179 ;
180 [label=<gini = 0.5<br/>samples = 2<br/>value = [1, 1]<br/>class = Clase 0>, fillcolor="#ffffff"] ;
179 -> 180 ;
181 [label=<Feature 2 &le; 146.0<br/>gini = 0.5<br/>samples = 4<br/>value = [2, 2]<br/>class = Clase 0>, fillcolor="#ffffff"] ;
179 -> 181 ;
182 [label=<gini = 0.5<br/>samples = 2<br/>value = [1, 1]<br/>class = Clase 0>, fillcolor="#ffffff"] ;
181 -> 182 ;
183 [label=<gini = 0.5<br/>samples = 2<br/>value = [1, 1]<br/>class = Clase 0>, fillcolor="#ffffff"] ;
181 -> 183 ;
184 [label=<Feature 2 &le; 156.0<br/>gini = 0.408<br/>samples = 7<br/>value = [5, 2]<br/>class = Clase 0>, fillcolor="#efb388"] ;
146 -> 184 ;
185 [label=<gini = 0.0<br/>samples = 2<br/>value = [2, 0]<br/>class = Clase 0>, fillcolor="#e58139"] ;
184 -> 185 ;
186 [label=<Feature 2 &le; 166.0<br/>gini = 0.48<br/>samples = 5<br/>value = [3, 2]<br/>class = Clase 0>, fillcolor="#f6d5bd"] ;
184 -> 186 ;
187 [label=<Feature 2 &le; 162.0<br/>gini = 0.5<br/>samples = 4<br/>value = [2, 2]<br/>class = Clase 0>, fillcolor="#ffffff"] ;
186 -> 187 ;
188 [label=<gini = 0.5<br/>samples = 2<br/>value = [1, 1]<br/>class = Clase 0>, fillcolor="#ffffff"] ;
187 -> 188 ;
189 [label=<gini = 0.5<br/>samples = 2<br/>value = [1, 1]<br/>class = Clase 0>, fillcolor="#ffffff"] ;
187 -> 189 ;
190 [label=<gini = 0.0<br/>samples = 1<br/>value = [1, 0]<br/>class = Clase 0>, fillcolor="#e58139"] ;
186 -> 190 ;
191 [label=<Feature 2 &le; 174.0<br/>gini = 0.482<br/>samples = 32<br/>value = [13, 19]<br/>class = Clase 1>, fillcolor="#c0e0f7"] ;
143 -> 191 ;
192 [label=<gini = 0.0<br/>samples = 1<br/>value = [0, 1]<br/>class = Clase 1>, fillcolor="#399de5"] ;
191 -> 192 ;
193 [label=<Feature 2 &le; 246.0<br/>gini = 0.487<br/>samples = 31<br/>value = [13, 18]<br/>class = Clase 1>, fillcolor="#c8e4f8"] ;
191 -> 193 ;
194 [label=<Feature 2 &le; 234.0<br/>gini = 0.491<br/>samples = 30<br/>value = [13, 17]<br/>class = Clase 1>, fillcolor="#d0e8f9"] ;
193 -> 194 ;
195 [label=<Feature 2 &le; 230.0<br/>gini = 0.48<br/>samples = 25<br/>value = [10, 15]<br/>class = Clase 1>, fillcolor="#bddef6"] ;
194 -> 195 ;
196 [label=<Feature 2 &le; 190.0<br/>gini = 0.486<br/>samples = 24<br/>value = [10, 14]<br/>class = Clase 1>, fillcolor="#c6e3f8"] ;
195 -> 196 ;
197 [label=<Feature 2 &le; 178.0<br/>gini = 0.5<br/>samples = 8<br/>value = [4, 4]<br/>class = Clase 0>, fillcolor="#ffffff"] ;
196 -> 197 ;
198 [label=<gini = 0.5<br/>samples = 2<br/>value = [1, 1]<br/>class = Clase 0>, fillcolor="#ffffff"] ;
197 -> 198 ;
199 [label=<Feature 2 &le; 182.0<br/>gini = 0.5<br/>samples = 6<br/>value = [3, 3]<br/>class = Clase 0>, fillcolor="#ffffff"] ;
197 -> 199 ;
200 [label=<gini = 0.5<br/>samples = 2<br/>value = [1, 1]<br/>class = Clase 0>, fillcolor="#ffffff"] ;
199 -> 200 ;
201 [label=<Feature 2 &le; 186.0<br/>gini = 0.5<br/>samples = 4<br/>value = [2, 2]<br/>class = Clase 0>, fillcolor="#ffffff"] ;
199 -> 201 ;
202 [label=<gini = 0.5<br/>samples = 2<br/>value = [1, 1]<br/>class = Clase 0>, fillcolor="#ffffff"] ;
201 -> 202 ;
203 [label=<gini = 0.5<br/>samples = 2<br/>value = [1, 1]<br/>class = Clase 0>, fillcolor="#ffffff"] ;
201 -> 203 ;
204 [label=<Feature 2 &le; 194.0<br/>gini = 0.469<br/>samples = 16<br/>value = [6, 10]<br/>class = Clase 1>, fillcolor="#b0d8f5"] ;
196 -> 204 ;
205 [label=<gini = 0.0<br/>samples = 1<br/>value = [0, 1]<br/>class = Clase 1>, fillcolor="#399de5"] ;
204 -> 205 ;
206 [label=<Feature 2 &le; 222.0<br/>gini = 0.48<br/>samples = 15<br/>value = [6, 9]<br/>class = Clase 1>, fillcolor="#bddef6"] ;
204 -> 206 ;
207 [label=<Feature 2 &le; 218.0<br/>gini = 0.463<br/>samples = 11<br/>value = [4, 7]<br/>class = Clase 1>, fillcolor="#aad5f4"] ;
206 -> 207 ;
208 [label=<Feature 2 &le; 198.0<br/>gini = 0.48<br/>samples = 10<br/>value = [4, 6]<br/>class = Clase 1>, fillcolor="#bddef6"] ;
207 -> 208 ;
209 [label=<gini = 0.5<br/>samples = 2<br/>value = [1, 1]<br/>class = Clase 0>, fillcolor="#ffffff"] ;
208 -> 209 ;
210 [label=<Feature 2 &le; 202.0<br/>gini = 0.469<br/>samples = 8<br/>value = [3, 5]<br/>class = Clase 1>, fillcolor="#b0d8f5"] ;
208 -> 210 ;
211 [label=<gini = 0.0<br/>samples = 1<br/>value = [0, 1]<br/>class = Clase 1>, fillcolor="#399de5"] ;
210 -> 211 ;
212 [label=<Feature 2 &le; 210.0<br/>gini = 0.49<br/>samples = 7<br/>value = [3, 4]<br/>class = Clase 1>, fillcolor="#cee6f8"] ;
210 -> 212 ;
213 [label=<Feature 2 &le; 206.0<br/>gini = 0.5<br/>samples = 4<br/>value = [2, 2]<br/>class = Clase 0>, fillcolor="#ffffff"] ;
212 -> 213 ;
214 [label=<gini = 0.5<br/>samples = 2<br/>value = [1, 1]<br/>class = Clase 0>, fillcolor="#ffffff"] ;
213 -> 214 ;
215 [label=<gini = 0.5<br/>samples = 2<br/>value = [1, 1]<br/>class = Clase 0>, fillcolor="#ffffff"] ;
213 -> 215 ;
216 [label=<Feature 2 &le; 214.0<br/>gini = 0.444<br/>samples = 3<br/>value = [1, 2]<br/>class = Clase 1>, fillcolor="#9ccef2"] ;
212 -> 216 ;
217 [label=<gini = 0.0<br/>samples = 1<br/>value = [0, 1]<br/>class = Clase 1>, fillcolor="#399de5"] ;
216 -> 217 ;
218 [label=<gini = 0.5<br/>samples = 2<br/>value = [1, 1]<br/>class = Clase 0>, fillcolor="#ffffff"] ;
216 -> 218 ;
219 [label=<gini = 0.0<br/>samples = 1<br/>value = [0, 1]<br/>class = Clase 1>, fillcolor="#399de5"] ;
207 -> 219 ;
220 [label=<Feature 2 &le; 226.0<br/>gini = 0.5<br/>samples = 4<br/>value = [2, 2]<br/>class = Clase 0>, fillcolor="#ffffff"] ;
206 -> 220 ;
221 [label=<gini = 0.5<br/>samples = 2<br/>value = [1, 1]<br/>class = Clase 0>, fillcolor="#ffffff"] ;
220 -> 221 ;
222 [label=<gini = 0.5<br/>samples = 2<br/>value = [1, 1]<br/>class = Clase 0>, fillcolor="#ffffff"] ;
220 -> 222 ;
223 [label=<gini = 0.0<br/>samples = 1<br/>value = [0, 1]<br/>class = Clase 1>, fillcolor="#399de5"] ;
195 -> 223 ;
224 [label=<Feature 2 &le; 238.0<br/>gini = 0.48<br/>samples = 5<br/>value = [3, 2]<br/>class = Clase 0>, fillcolor="#f6d5bd"] ;
194 -> 224 ;
225 [label=<gini = 0.0<br/>samples = 1<br/>value = [1, 0]<br/>class = Clase 0>, fillcolor="#e58139"] ;
224 -> 225 ;
226 [label=<Feature 2 &le; 242.0<br/>gini = 0.5<br/>samples = 4<br/>value = [2, 2]<br/>class = Clase 0>, fillcolor="#ffffff"] ;
224 -> 226 ;
227 [label=<gini = 0.5<br/>samples = 2<br/>value = [1, 1]<br/>class = Clase 0>, fillcolor="#ffffff"] ;
226 -> 227 ;
228 [label=<gini = 0.5<br/>samples = 2<br/>value = [1, 1]<br/>class = Clase 0>, fillcolor="#ffffff"] ;
226 -> 228 ;
229 [label=<gini = 0.0<br/>samples = 1<br/>value = [0, 1]<br/>class = Clase 1>, fillcolor="#399de5"] ;
193 -> 229 ;
230 [label=<gini = 0.0<br/>samples = 1<br/>value = [1, 0]<br/>class = Clase 0>, fillcolor="#e58139"] ;
142 -> 230 ;
231 [label=<Feature 2 &le; 212.5<br/>gini = 0.199<br/>samples = 98<br/>value = [87, 11]<br/>class = Clase 0>, fillcolor="#e89152"] ;
53 -> 231 ;
232 [label=<Feature 2 &le; 68.5<br/>gini = 0.026<br/>samples = 77<br/>value = [76, 1]<br/>class = Clase 0>, fillcolor="#e5833c"] ;
231 -> 232 ;
233 [label=<gini = 0.5<br/>samples = 2<br/>value = [1, 1]<br/>class = Clase 0>, fillcolor="#ffffff"] ;
232 -> 233 ;
234 [label=<gini = 0.0<br/>samples = 75<br/>value = [75, 0]<br/>class = Clase 0>, fillcolor="#e58139"] ;
232 -> 234 ;
235 [label=<Feature 2 &le; 248.5<br/>gini = 0.499<br/>samples = 21<br/>value = [11, 10]<br/>class = Clase 0>, fillcolor="#fdf4ed"] ;
231 -> 235 ;
236 [label=<Feature 2 &le; 215.5<br/>gini = 0.499<br/>samples = 19<br/>value = [9, 10]<br/>class = Clase 1>, fillcolor="#ebf5fc"] ;
235 -> 236 ;
237 [label=<gini = 0.0<br/>samples = 1<br/>value = [0, 1]<br/>class = Clase 1>, fillcolor="#399de5"] ;
236 -> 237 ;
238 [label=<Feature 2 &le; 245.5<br/>gini = 0.5<br/>samples = 18<br/>value = [9, 9]<br/>class = Clase 0>, fillcolor="#ffffff"] ;
236 -> 238 ;
239 [label=<Feature 2 &le; 224.5<br/>gini = 0.498<br/>samples = 17<br/>value = [9, 8]<br/>class = Clase 0>, fillcolor="#fcf1e9"] ;
238 -> 239 ;
240 [label=<Feature 2 &le; 220.0<br/>gini = 0.444<br/>samples = 3<br/>value = [2, 1]<br/>class = Clase 0>, fillcolor="#f2c09c"] ;
239 -> 240 ;
241 [label=<gini = 0.5<br/>samples = 2<br/>value = [1, 1]<br/>class = Clase 0>, fillcolor="#ffffff"] ;
240 -> 241 ;
242 [label=<gini = 0.0<br/>samples = 1<br/>value = [1, 0]<br/>class = Clase 0>, fillcolor="#e58139"] ;
240 -> 242 ;
243 [label=<Feature 2 &le; 227.5<br/>gini = 0.5<br/>samples = 14<br/>value = [7, 7]<br/>class = Clase 0>, fillcolor="#ffffff"] ;
239 -> 243 ;
244 [label=<gini = 0.5<br/>samples = 2<br/>value = [1, 1]<br/>class = Clase 0>, fillcolor="#ffffff"] ;
243 -> 244 ;
245 [label=<Feature 2 &le; 230.5<br/>gini = 0.5<br/>samples = 12<br/>value = [6, 6]<br/>class = Clase 0>, fillcolor="#ffffff"] ;
243 -> 245 ;
246 [label=<gini = 0.5<br/>samples = 2<br/>value = [1, 1]<br/>class = Clase 0>, fillcolor="#ffffff"] ;
245 -> 246 ;
247 [label=<Feature 2 &le; 233.5<br/>gini = 0.5<br/>samples = 10<br/>value = [5, 5]<br/>class = Clase 0>, fillcolor="#ffffff"] ;
245 -> 247 ;
248 [label=<gini = 0.5<br/>samples = 2<br/>value = [1, 1]<br/>class = Clase 0>, fillcolor="#ffffff"] ;
247 -> 248 ;
249 [label=<Feature 2 &le; 236.5<br/>gini = 0.5<br/>samples = 8<br/>value = [4, 4]<br/>class = Clase 0>, fillcolor="#ffffff"] ;
247 -> 249 ;
250 [label=<gini = 0.5<br/>samples = 2<br/>value = [1, 1]<br/>class = Clase 0>, fillcolor="#ffffff"] ;
249 -> 250 ;
251 [label=<Feature 2 &le; 239.5<br/>gini = 0.5<br/>samples = 6<br/>value = [3, 3]<br/>class = Clase 0>, fillcolor="#ffffff"] ;
249 -> 251 ;
252 [label=<gini = 0.5<br/>samples = 2<br/>value = [1, 1]<br/>class = Clase 0>, fillcolor="#ffffff"] ;
251 -> 252 ;
253 [label=<Feature 2 &le; 242.5<br/>gini = 0.5<br/>samples = 4<br/>value = [2, 2]<br/>class = Clase 0>, fillcolor="#ffffff"] ;
251 -> 253 ;
254 [label=<gini = 0.5<br/>samples = 2<br/>value = [1, 1]<br/>class = Clase 0>, fillcolor="#ffffff"] ;
253 -> 254 ;
255 [label=<gini = 0.5<br/>samples = 2<br/>value = [1, 1]<br/>class = Clase 0>, fillcolor="#ffffff"] ;
253 -> 255 ;
256 [label=<gini = 0.0<br/>samples = 1<br/>value = [0, 1]<br/>class = Clase 1>, fillcolor="#399de5"] ;
238 -> 256 ;
257 [label=<gini = 0.0<br/>samples = 2<br/>value = [2, 0]<br/>class = Clase 0>, fillcolor="#e58139"] ;
235 -> 257 ;
258 [label=<Feature 1 &le; -3.5<br/>gini = 0.48<br/>samples = 944<br/>value = [377, 567]<br/>class = Clase 1>, fillcolor="#bddef6"] ;
52 -> 258 ;
259 [label=<Feature 2 &le; 335.5<br/>gini = 0.459<br/>samples = 713<br/>value = [255, 458]<br/>class = Clase 1>, fillcolor="#a7d4f3"] ;
258 -> 259 ;
260 [label=<Feature 1 &le; -7.0<br/>gini = 0.5<br/>samples = 125<br/>value = [63, 62]<br/>class = Clase 0>, fillcolor="#fffdfc"] ;
259 -> 260 ;
261 [label=<gini = 0.0<br/>samples = 10<br/>value = [10, 0]<br/>class = Clase 0>, fillcolor="#e58139"] ;
260 -> 261 ;
262 [label=<Feature 1 &le; -5.5<br/>gini = 0.497<br/>samples = 115<br/>value = [53, 62]<br/>class = Clase 1>, fillcolor="#e2f1fb"] ;
260 -> 262 ;
263 [label=<gini = 0.0<br/>samples = 10<br/>value = [0, 10]<br/>class = Clase 1>, fillcolor="#399de5"] ;
262 -> 263 ;
264 [label=<Feature 2 &le; 258.0<br/>gini = 0.5<br/>samples = 105<br/>value = [53, 52]<br/>class = Clase 0>, fillcolor="#fffdfb"] ;
262 -> 264 ;
265 [label=<gini = 0.0<br/>samples = 1<br/>value = [1, 0]<br/>class = Clase 0>, fillcolor="#e58139"] ;
264 -> 265 ;
266 [label=<Feature 2 &le; 309.0<br/>gini = 0.5<br/>samples = 104<br/>value = [52, 52]<br/>class = Clase 0>, fillcolor="#ffffff"] ;
264 -> 266 ;
267 [label=<Feature 2 &le; 306.5<br/>gini = 0.498<br/>samples = 70<br/>value = [37, 33]<br/>class = Clase 0>, fillcolor="#fcf1ea"] ;
266 -> 267 ;
268 [label=<Feature 2 &le; 273.5<br/>gini = 0.499<br/>samples = 69<br/>value = [36, 33]<br/>class = Clase 0>, fillcolor="#fdf5ef"] ;
267 -> 268 ;
269 [label=<Feature 2 &le; 269.0<br/>gini = 0.499<br/>samples = 25<br/>value = [12, 13]<br/>class = Clase 1>, fillcolor="#f0f7fd"] ;
268 -> 269 ;
270 [label=<Feature 1 &le; -4.5<br/>gini = 0.5<br/>samples = 18<br/>value = [9, 9]<br/>class = Clase 0>, fillcolor="#ffffff"] ;
269 -> 270 ;
271 [label=<Feature 2 &le; 262.5<br/>gini = 0.5<br/>samples = 12<br/>value = [6, 6]<br/>class = Clase 0>, fillcolor="#ffffff"] ;
270 -> 271 ;
272 [label=<gini = 0.5<br/>samples = 6<br/>value = [3, 3]<br/>class = Clase 0>, fillcolor="#ffffff"] ;
271 -> 272 ;
273 [label=<gini = 0.5<br/>samples = 6<br/>value = [3, 3]<br/>class = Clase 0>, fillcolor="#ffffff"] ;
271 -> 273 ;
274 [label=<Feature 2 &le; 262.0<br/>gini = 0.5<br/>samples = 6<br/>value = [3, 3]<br/>class = Clase 0>, fillcolor="#ffffff"] ;
270 -> 274 ;
275 [label=<gini = 0.5<br/>samples = 2<br/>value = [1, 1]<br/>class = Clase 0>, fillcolor="#ffffff"] ;
274 -> 275 ;
276 [label=<Feature 2 &le; 266.0<br/>gini = 0.5<br/>samples = 4<br/>value = [2, 2]<br/>class = Clase 0>, fillcolor="#ffffff"] ;
274 -> 276 ;
277 [label=<gini = 0.5<br/>samples = 2<br/>value = [1, 1]<br/>class = Clase 0>, fillcolor="#ffffff"] ;
276 -> 277 ;
278 [label=<gini = 0.5<br/>samples = 2<br/>value = [1, 1]<br/>class = Clase 0>, fillcolor="#ffffff"] ;
276 -> 278 ;
279 [label=<Feature 1 &le; -4.5<br/>gini = 0.49<br/>samples = 7<br/>value = [3, 4]<br/>class = Clase 1>, fillcolor="#cee6f8"] ;
269 -> 279 ;
280 [label=<gini = 0.48<br/>samples = 5<br/>value = [2, 3]<br/>class = Clase 1>, fillcolor="#bddef6"] ;
279 -> 280 ;
281 [label=<gini = 0.5<br/>samples = 2<br/>value = [1, 1]<br/>class = Clase 0>, fillcolor="#ffffff"] ;
279 -> 281 ;
282 [label=<Feature 2 &le; 291.0<br/>gini = 0.496<br/>samples = 44<br/>value = [24, 20]<br/>class = Clase 0>, fillcolor="#fbeade"] ;
268 -> 282 ;
283 [label=<Feature 2 &le; 275.5<br/>gini = 0.472<br/>samples = 21<br/>value = [13, 8]<br/>class = Clase 0>, fillcolor="#f5cfb3"] ;
282 -> 283 ;
284 [label=<gini = 0.375<br/>samples = 4<br/>value = [3, 1]<br/>class = Clase 0>, fillcolor="#eeab7b"] ;
283 -> 284 ;
285 [label=<Feature 2 &le; 278.0<br/>gini = 0.484<br/>samples = 17<br/>value = [10, 7]<br/>class = Clase 0>, fillcolor="#f7d9c4"] ;
283 -> 285 ;
286 [label=<gini = 0.0<br/>samples = 1<br/>value = [0, 1]<br/>class = Clase 1>, fillcolor="#399de5"] ;
285 -> 286 ;
287 [label=<Feature 2 &le; 282.0<br/>gini = 0.469<br/>samples = 16<br/>value = [10, 6]<br/>class = Clase 0>, fillcolor="#f5cdb0"] ;
285 -> 287 ;
288 [label=<gini = 0.5<br/>samples = 4<br/>value = [2, 2]<br/>class = Clase 0>, fillcolor="#ffffff"] ;
287 -> 288 ;
289 [label=<Feature 2 &le; 284.5<br/>gini = 0.444<br/>samples = 12<br/>value = [8, 4]<br/>class = Clase 0>, fillcolor="#f2c09c"] ;
287 -> 289 ;
290 [label=<gini = 0.0<br/>samples = 2<br/>value = [2, 0]<br/>class = Clase 0>, fillcolor="#e58139"] ;
289 -> 290 ;
291 [label=<Feature 1 &le; -4.5<br/>gini = 0.48<br/>samples = 10<br/>value = [6, 4]<br/>class = Clase 0>, fillcolor="#f6d5bd"] ;
289 -> 291 ;
292 [label=<Feature 2 &le; 287.5<br/>gini = 0.444<br/>samples = 9<br/>value = [6, 3]<br/>class = Clase 0>, fillcolor="#f2c09c"] ;
291 -> 292 ;
293 [label=<gini = 0.48<br/>samples = 5<br/>value = [3, 2]<br/>class = Clase 0>, fillcolor="#f6d5bd"] ;
292 -> 293 ;
294 [label=<gini = 0.375<br/>samples = 4<br/>value = [3, 1]<br/>class = Clase 0>, fillcolor="#eeab7b"] ;
292 -> 294 ;
295 [label=<gini = 0.0<br/>samples = 1<br/>value = [0, 1]<br/>class = Clase 1>, fillcolor="#399de5"] ;
291 -> 295 ;
296 [label=<Feature 2 &le; 304.5<br/>gini = 0.499<br/>samples = 23<br/>value = [11, 12]<br/>class = Clase 1>, fillcolor="#eff7fd"] ;
282 -> 296 ;
297 [label=<Feature 2 &le; 302.0<br/>gini = 0.494<br/>samples = 18<br/>value = [8, 10]<br/>class = Clase 1>, fillcolor="#d7ebfa"] ;
296 -> 297 ;
298 [label=<Feature 2 &le; 298.0<br/>gini = 0.498<br/>samples = 17<br/>value = [8, 9]<br/>class = Clase 1>, fillcolor="#e9f4fc"] ;
297 -> 298 ;
299 [label=<Feature 1 &le; -4.5<br/>gini = 0.5<br/>samples = 10<br/>value = [5, 5]<br/>class = Clase 0>, fillcolor="#ffffff"] ;
298 -> 299 ;
300 [label=<gini = 0.5<br/>samples = 6<br/>value = [3, 3]<br/>class = Clase 0>, fillcolor="#ffffff"] ;
299 -> 300 ;
301 [label=<Feature 2 &le; 294.0<br/>gini = 0.5<br/>samples = 4<br/>value = [2, 2]<br/>class = Clase 0>, fillcolor="#ffffff"] ;
299 -> 301 ;
302 [label=<gini = 0.5<br/>samples = 2<br/>value = [1, 1]<br/>class = Clase 0>, fillcolor="#ffffff"] ;
301 -> 302 ;
303 [label=<gini = 0.5<br/>samples = 2<br/>value = [1, 1]<br/>class = Clase 0>, fillcolor="#ffffff"] ;
301 -> 303 ;
304 [label=<Feature 1 &le; -4.5<br/>gini = 0.49<br/>samples = 7<br/>value = [3, 4]<br/>class = Clase 1>, fillcolor="#cee6f8"] ;
298 -> 304 ;
305 [label=<gini = 0.48<br/>samples = 5<br/>value = [2, 3]<br/>class = Clase 1>, fillcolor="#bddef6"] ;
304 -> 305 ;
306 [label=<gini = 0.5<br/>samples = 2<br/>value = [1, 1]<br/>class = Clase 0>, fillcolor="#ffffff"] ;
304 -> 306 ;
307 [label=<gini = 0.0<br/>samples = 1<br/>value = [0, 1]<br/>class = Clase 1>, fillcolor="#399de5"] ;
297 -> 307 ;
308 [label=<gini = 0.48<br/>samples = 5<br/>value = [3, 2]<br/>class = Clase 0>, fillcolor="#f6d5bd"] ;
296 -> 308 ;
309 [label=<gini = 0.0<br/>samples = 1<br/>value = [1, 0]<br/>class = Clase 0>, fillcolor="#e58139"] ;
267 -> 309 ;
310 [label=<Feature 2 &le; 313.5<br/>gini = 0.493<br/>samples = 34<br/>value = [15, 19]<br/>class = Clase 1>, fillcolor="#d5eafa"] ;
266 -> 310 ;
311 [label=<Feature 1 &le; -4.5<br/>gini = 0.32<br/>samples = 5<br/>value = [1, 4]<br/>class = Clase 1>, fillcolor="#6ab6ec"] ;
310 -> 311 ;
312 [label=<gini = 0.375<br/>samples = 4<br/>value = [1, 3]<br/>class = Clase 1>, fillcolor="#7bbeee"] ;
311 -> 312 ;
313 [label=<gini = 0.0<br/>samples = 1<br/>value = [0, 1]<br/>class = Clase 1>, fillcolor="#399de5"] ;
311 -> 313 ;
314 [label=<Feature 2 &le; 333.5<br/>gini = 0.499<br/>samples = 29<br/>value = [14.0, 15.0]<br/>class = Clase 1>, fillcolor="#f2f8fd"] ;
310 -> 314 ;
315 [label=<Feature 2 &le; 331.0<br/>gini = 0.497<br/>samples = 26<br/>value = [12, 14]<br/>class = Clase 1>, fillcolor="#e3f1fb"] ;
314 -> 315 ;
316 [label=<Feature 2 &le; 329.0<br/>gini = 0.5<br/>samples = 24<br/>value = [12, 12]<br/>class = Clase 0>, fillcolor="#ffffff"] ;
315 -> 316 ;
317 [label=<Feature 1 &le; -4.5<br/>gini = 0.495<br/>samples = 20<br/>value = [9, 11]<br/>class = Clase 1>, fillcolor="#dbedfa"] ;
316 -> 317 ;
318 [label=<Feature 2 &le; 322.5<br/>gini = 0.473<br/>samples = 13<br/>value = [5, 8]<br/>class = Clase 1>, fillcolor="#b5daf5"] ;
317 -> 318 ;
319 [label=<Feature 2 &le; 317.5<br/>gini = 0.444<br/>samples = 9<br/>value = [3, 6]<br/>class = Clase 1>, fillcolor="#9ccef2"] ;
318 -> 319 ;
320 [label=<gini = 0.48<br/>samples = 5<br/>value = [2, 3]<br/>class = Clase 1>, fillcolor="#bddef6"] ;
319 -> 320 ;
321 [label=<gini = 0.375<br/>samples = 4<br/>value = [1, 3]<br/>class = Clase 1>, fillcolor="#7bbeee"] ;
319 -> 321 ;
322 [label=<gini = 0.5<br/>samples = 4<br/>value = [2, 2]<br/>class = Clase 0>, fillcolor="#ffffff"] ;
318 -> 322 ;
323 [label=<Feature 2 &le; 322.0<br/>gini = 0.49<br/>samples = 7<br/>value = [4, 3]<br/>class = Clase 0>, fillcolor="#f8e0ce"] ;
317 -> 323 ;
324 [label=<Feature 2 &le; 318.0<br/>gini = 0.444<br/>samples = 3<br/>value = [2, 1]<br/>class = Clase 0>, fillcolor="#f2c09c"] ;
323 -> 324 ;
325 [label=<gini = 0.5<br/>samples = 2<br/>value = [1, 1]<br/>class = Clase 0>, fillcolor="#ffffff"] ;
324 -> 325 ;
326 [label=<gini = 0.0<br/>samples = 1<br/>value = [1, 0]<br/>class = Clase 0>, fillcolor="#e58139"] ;
324 -> 326 ;
327 [label=<Feature 2 &le; 326.0<br/>gini = 0.5<br/>samples = 4<br/>value = [2, 2]<br/>class = Clase 0>, fillcolor="#ffffff"] ;
323 -> 327 ;
328 [label=<gini = 0.5<br/>samples = 2<br/>value = [1, 1]<br/>class = Clase 0>, fillcolor="#ffffff"] ;
327 -> 328 ;
329 [label=<gini = 0.5<br/>samples = 2<br/>value = [1, 1]<br/>class = Clase 0>, fillcolor="#ffffff"] ;
327 -> 329 ;
330 [label=<gini = 0.375<br/>samples = 4<br/>value = [3, 1]<br/>class = Clase 0>, fillcolor="#eeab7b"] ;
316 -> 330 ;
331 [label=<gini = 0.0<br/>samples = 2<br/>value = [0, 2]<br/>class = Clase 1>, fillcolor="#399de5"] ;
315 -> 331 ;
332 [label=<gini = 0.444<br/>samples = 3<br/>value = [2, 1]<br/>class = Clase 0>, fillcolor="#f2c09c"] ;
314 -> 332 ;
333 [label=<Feature 2 &le; 395.5<br/>gini = 0.44<br/>samples = 588<br/>value = [192.0, 396.0]<br/>class = Clase 1>, fillcolor="#99cdf2"] ;
259 -> 333 ;
334 [label=<Feature 1 &le; -7.0<br/>gini = 0.213<br/>samples = 91<br/>value = [11, 80]<br/>class = Clase 1>, fillcolor="#54aae9"] ;
333 -> 334 ;
335 [label=<gini = 0.0<br/>samples = 4<br/>value = [4, 0]<br/>class = Clase 0>, fillcolor="#e58139"] ;
334 -> 335 ;
336 [label=<Feature 1 &le; -4.5<br/>gini = 0.148<br/>samples = 87<br/>value = [7, 80]<br/>class = Clase 1>, fillcolor="#4aa6e7"] ;
334 -> 336 ;
337 [label=<Feature 2 &le; 342.5<br/>gini = 0.195<br/>samples = 64<br/>value = [7, 57]<br/>class = Clase 1>, fillcolor="#51a9e8"] ;
336 -> 337 ;
338 [label=<Feature 1 &le; -5.5<br/>gini = 0.408<br/>samples = 7<br/>value = [2, 5]<br/>class = Clase 1>, fillcolor="#88c4ef"] ;
337 -> 338 ;
339 [label=<gini = 0.0<br/>samples = 1<br/>value = [0, 1]<br/>class = Clase 1>, fillcolor="#399de5"] ;
338 -> 339 ;
340 [label=<gini = 0.444<br/>samples = 6<br/>value = [2, 4]<br/>class = Clase 1>, fillcolor="#9ccef2"] ;
338 -> 340 ;
341 [label=<Feature 2 &le; 359.0<br/>gini = 0.16<br/>samples = 57<br/>value = [5, 52]<br/>class = Clase 1>, fillcolor="#4ca6e8"] ;
337 -> 341 ;
342 [label=<gini = 0.0<br/>samples = 14<br/>value = [0, 14]<br/>class = Clase 1>, fillcolor="#399de5"] ;
341 -> 342 ;
343 [label=<Feature 1 &le; -5.5<br/>gini = 0.206<br/>samples = 43<br/>value = [5, 38]<br/>class = Clase 1>, fillcolor="#53aae8"] ;
341 -> 343 ;
344 [label=<gini = 0.0<br/>samples = 5<br/>value = [0, 5]<br/>class = Clase 1>, fillcolor="#399de5"] ;
343 -> 344 ;
345 [label=<Feature 2 &le; 387.5<br/>gini = 0.229<br/>samples = 38<br/>value = [5, 33]<br/>class = Clase 1>, fillcolor="#57ace9"] ;
343 -> 345 ;
346 [label=<Feature 2 &le; 382.5<br/>gini = 0.198<br/>samples = 27<br/>value = [3, 24]<br/>class = Clase 1>, fillcolor="#52a9e8"] ;
345 -> 346 ;
347 [label=<Feature 2 &le; 362.5<br/>gini = 0.236<br/>samples = 22<br/>value = [3, 19]<br/>class = Clase 1>, fillcolor="#58ace9"] ;
346 -> 347 ;
348 [label=<gini = 0.32<br/>samples = 5<br/>value = [1, 4]<br/>class = Clase 1>, fillcolor="#6ab6ec"] ;
347 -> 348 ;
349 [label=<Feature 2 &le; 367.5<br/>gini = 0.208<br/>samples = 17<br/>value = [2, 15]<br/>class = Clase 1>, fillcolor="#53aae8"] ;
347 -> 349 ;
350 [label=<gini = 0.0<br/>samples = 4<br/>value = [0, 4]<br/>class = Clase 1>, fillcolor="#399de5"] ;
349 -> 350 ;
351 [label=<Feature 2 &le; 372.5<br/>gini = 0.26<br/>samples = 13<br/>value = [2, 11]<br/>class = Clase 1>, fillcolor="#5dafea"] ;
349 -> 351 ;
352 [label=<gini = 0.375<br/>samples = 4<br/>value = [1, 3]<br/>class = Clase 1>, fillcolor="#7bbeee"] ;
351 -> 352 ;
353 [label=<Feature 2 &le; 377.5<br/>gini = 0.198<br/>samples = 9<br/>value = [1, 8]<br/>class = Clase 1>, fillcolor="#52a9e8"] ;
351 -> 353 ;
354 [label=<gini = 0.0<br/>samples = 3<br/>value = [0, 3]<br/>class = Clase 1>, fillcolor="#399de5"] ;
353 -> 354 ;
355 [label=<gini = 0.278<br/>samples = 6<br/>value = [1, 5]<br/>class = Clase 1>, fillcolor="#61b1ea"] ;
353 -> 355 ;
356 [label=<gini = 0.0<br/>samples = 5<br/>value = [0, 5]<br/>class = Clase 1>, fillcolor="#399de5"] ;
346 -> 356 ;
357 [label=<Feature 2 &le; 392.5<br/>gini = 0.298<br/>samples = 11<br/>value = [2, 9]<br/>class = Clase 1>, fillcolor="#65b3eb"] ;
345 -> 357 ;
358 [label=<gini = 0.278<br/>samples = 6<br/>value = [1, 5]<br/>class = Clase 1>, fillcolor="#61b1ea"] ;
357 -> 358 ;
359 [label=<gini = 0.32<br/>samples = 5<br/>value = [1, 4]<br/>class = Clase 1>, fillcolor="#6ab6ec"] ;
357 -> 359 ;
360 [label=<gini = 0.0<br/>samples = 23<br/>value = [0, 23]<br/>class = Clase 1>, fillcolor="#399de5"] ;
336 -> 360 ;
361 [label=<Feature 2 &le; 653.5<br/>gini = 0.463<br/>samples = 497<br/>value = [181, 316]<br/>class = Clase 1>, fillcolor="#aad5f4"] ;
333 -> 361 ;
362 [label=<Feature 1 &le; -4.5<br/>gini = 0.442<br/>samples = 412<br/>value = [136, 276]<br/>class = Clase 1>, fillcolor="#9bcdf2"] ;
361 -> 362 ;
363 [label=<Feature 2 &le; 509.0<br/>gini = 0.417<br/>samples = 301<br/>value = [89.0, 212.0]<br/>class = Clase 1>, fillcolor="#8cc6f0"] ;
362 -> 363 ;
364 [label=<Feature 1 &le; -5.5<br/>gini = 0.485<br/>samples = 128<br/>value = [53, 75]<br/>class = Clase 1>, fillcolor="#c5e2f7"] ;
363 -> 364 ;
365 [label=<Feature 2 &le; 450.0<br/>gini = 0.33<br/>samples = 24<br/>value = [19, 5]<br/>class = Clase 0>, fillcolor="#eca26d"] ;
364 -> 365 ;
366 [label=<gini = 0.0<br/>samples = 13<br/>value = [13, 0]<br/>class = Clase 0>, fillcolor="#e58139"] ;
365 -> 366 ;
367 [label=<Feature 1 &le; -7.0<br/>gini = 0.496<br/>samples = 11<br/>value = [6, 5]<br/>class = Clase 0>, fillcolor="#fbeade"] ;
365 -> 367 ;
368 [label=<gini = 0.0<br/>samples = 5<br/>value = [0, 5]<br/>class = Clase 1>, fillcolor="#399de5"] ;
367 -> 368 ;
369 [label=<gini = 0.0<br/>samples = 6<br/>value = [6, 0]<br/>class = Clase 0>, fillcolor="#e58139"] ;
367 -> 369 ;
370 [label=<Feature 2 &le; 482.5<br/>gini = 0.44<br/>samples = 104<br/>value = [34, 70]<br/>class = Clase 1>, fillcolor="#99cdf2"] ;
364 -> 370 ;
371 [label=<Feature 2 &le; 402.5<br/>gini = 0.402<br/>samples = 79<br/>value = [22, 57]<br/>class = Clase 1>, fillcolor="#85c3ef"] ;
370 -> 371 ;
372 [label=<gini = 0.5<br/>samples = 4<br/>value = [2, 2]<br/>class = Clase 0>, fillcolor="#ffffff"] ;
371 -> 372 ;
373 [label=<Feature 2 &le; 457.5<br/>gini = 0.391<br/>samples = 75<br/>value = [20.0, 55.0]<br/>class = Clase 1>, fillcolor="#81c1ee"] ;
371 -> 373 ;
374 [label=<Feature 2 &le; 452.5<br/>gini = 0.355<br/>samples = 52<br/>value = [12, 40]<br/>class = Clase 1>, fillcolor="#74baed"] ;
373 -> 374 ;
375 [label=<Feature 2 &le; 432.5<br/>gini = 0.38<br/>samples = 47<br/>value = [12.0, 35.0]<br/>class = Clase 1>, fillcolor="#7dbfee"] ;
374 -> 375 ;
376 [label=<Feature 2 &le; 417.5<br/>gini = 0.337<br/>samples = 28<br/>value = [6, 22]<br/>class = Clase 1>, fillcolor="#6fb8ec"] ;
375 -> 376 ;
377 [label=<Feature 2 &le; 407.5<br/>gini = 0.397<br/>samples = 11<br/>value = [3, 8]<br/>class = Clase 1>, fillcolor="#83c2ef"] ;
376 -> 377 ;
378 [label=<gini = 0.444<br/>samples = 3<br/>value = [1, 2]<br/>class = Clase 1>, fillcolor="#9ccef2"] ;
377 -> 378 ;
379 [label=<Feature 2 &le; 412.5<br/>gini = 0.375<br/>samples = 8<br/>value = [2, 6]<br/>class = Clase 1>, fillcolor="#7bbeee"] ;
377 -> 379 ;
380 [label=<gini = 0.375<br/>samples = 4<br/>value = [1, 3]<br/>class = Clase 1>, fillcolor="#7bbeee"] ;
379 -> 380 ;
381 [label=<gini = 0.375<br/>samples = 4<br/>value = [1, 3]<br/>class = Clase 1>, fillcolor="#7bbeee"] ;
379 -> 381 ;
382 [label=<Feature 2 &le; 422.5<br/>gini = 0.291<br/>samples = 17<br/>value = [3, 14]<br/>class = Clase 1>, fillcolor="#63b2eb"] ;
376 -> 382 ;
383 [label=<gini = 0.278<br/>samples = 6<br/>value = [1, 5]<br/>class = Clase 1>, fillcolor="#61b1ea"] ;
382 -> 383 ;
384 [label=<Feature 2 &le; 427.5<br/>gini = 0.298<br/>samples = 11<br/>value = [2, 9]<br/>class = Clase 1>, fillcolor="#65b3eb"] ;
382 -> 384 ;
385 [label=<gini = 0.32<br/>samples = 5<br/>value = [1, 4]<br/>class = Clase 1>, fillcolor="#6ab6ec"] ;
384 -> 385 ;
386 [label=<gini = 0.278<br/>samples = 6<br/>value = [1, 5]<br/>class = Clase 1>, fillcolor="#61b1ea"] ;
384 -> 386 ;
387 [label=<Feature 2 &le; 442.5<br/>gini = 0.432<br/>samples = 19<br/>value = [6, 13]<br/>class = Clase 1>, fillcolor="#94caf1"] ;
375 -> 387 ;
388 [label=<Feature 2 &le; 437.5<br/>gini = 0.494<br/>samples = 9<br/>value = [4, 5]<br/>class = Clase 1>, fillcolor="#d7ebfa"] ;
387 -> 388 ;
389 [label=<gini = 0.48<br/>samples = 5<br/>value = [2, 3]<br/>class = Clase 1>, fillcolor="#bddef6"] ;
388 -> 389 ;
390 [label=<gini = 0.5<br/>samples = 4<br/>value = [2, 2]<br/>class = Clase 0>, fillcolor="#ffffff"] ;
388 -> 390 ;
391 [label=<Feature 2 &le; 447.5<br/>gini = 0.32<br/>samples = 10<br/>value = [2, 8]<br/>class = Clase 1>, fillcolor="#6ab6ec"] ;
387 -> 391 ;
392 [label=<gini = 0.375<br/>samples = 4<br/>value = [1, 3]<br/>class = Clase 1>, fillcolor="#7bbeee"] ;
391 -> 392 ;
393 [label=<gini = 0.278<br/>samples = 6<br/>value = [1, 5]<br/>class = Clase 1>, fillcolor="#61b1ea"] ;
391 -> 393 ;
394 [label=<gini = 0.0<br/>samples = 5<br/>value = [0, 5]<br/>class = Clase 1>, fillcolor="#399de5"] ;
374 -> 394 ;
395 [label=<Feature 2 &le; 472.5<br/>gini = 0.454<br/>samples = 23<br/>value = [8, 15]<br/>class = Clase 1>, fillcolor="#a3d1f3"] ;
373 -> 395 ;
396 [label=<Feature 2 &le; 462.5<br/>gini = 0.49<br/>samples = 14<br/>value = [6, 8]<br/>class = Clase 1>, fillcolor="#cee6f8"] ;
395 -> 396 ;
397 [label=<gini = 0.48<br/>samples = 5<br/>value = [2, 3]<br/>class = Clase 1>, fillcolor="#bddef6"] ;
396 -> 397 ;
398 [label=<Feature 2 &le; 467.5<br/>gini = 0.494<br/>samples = 9<br/>value = [4, 5]<br/>class = Clase 1>, fillcolor="#d7ebfa"] ;
396 -> 398 ;
399 [label=<gini = 0.5<br/>samples = 4<br/>value = [2, 2]<br/>class = Clase 0>, fillcolor="#ffffff"] ;
398 -> 399 ;
400 [label=<gini = 0.48<br/>samples = 5<br/>value = [2, 3]<br/>class = Clase 1>, fillcolor="#bddef6"] ;
398 -> 400 ;
401 [label=<Feature 2 &le; 477.5<br/>gini = 0.346<br/>samples = 9<br/>value = [2, 7]<br/>class = Clase 1>, fillcolor="#72b9ec"] ;
395 -> 401 ;
402 [label=<gini = 0.375<br/>samples = 4<br/>value = [1, 3]<br/>class = Clase 1>, fillcolor="#7bbeee"] ;
401 -> 402 ;
403 [label=<gini = 0.32<br/>samples = 5<br/>value = [1, 4]<br/>class = Clase 1>, fillcolor="#6ab6ec"] ;
401 -> 403 ;
404 [label=<Feature 2 &le; 502.5<br/>gini = 0.499<br/>samples = 25<br/>value = [12, 13]<br/>class = Clase 1>, fillcolor="#f0f7fd"] ;
370 -> 404 ;
405 [label=<Feature 2 &le; 487.5<br/>gini = 0.495<br/>samples = 20<br/>value = [11, 9]<br/>class = Clase 0>, fillcolor="#fae8db"] ;
404 -> 405 ;
406 [label=<gini = 0.48<br/>samples = 5<br/>value = [2, 3]<br/>class = Clase 1>, fillcolor="#bddef6"] ;
405 -> 406 ;
407 [label=<Feature 2 &le; 492.5<br/>gini = 0.48<br/>samples = 15<br/>value = [9, 6]<br/>class = Clase 0>, fillcolor="#f6d5bd"] ;
405 -> 407 ;
408 [label=<gini = 0.48<br/>samples = 5<br/>value = [3, 2]<br/>class = Clase 0>, fillcolor="#f6d5bd"] ;
407 -> 408 ;
409 [label=<Feature 2 &le; 497.5<br/>gini = 0.48<br/>samples = 10<br/>value = [6, 4]<br/>class = Clase 0>, fillcolor="#f6d5bd"] ;
407 -> 409 ;
410 [label=<gini = 0.48<br/>samples = 5<br/>value = [3, 2]<br/>class = Clase 0>, fillcolor="#f6d5bd"] ;
409 -> 410 ;
411 [label=<gini = 0.48<br/>samples = 5<br/>value = [3, 2]<br/>class = Clase 0>, fillcolor="#f6d5bd"] ;
409 -> 411 ;
412 [label=<gini = 0.32<br/>samples = 5<br/>value = [1, 4]<br/>class = Clase 1>, fillcolor="#6ab6ec"] ;
404 -> 412 ;
413 [label=<Feature 1 &le; -5.5<br/>gini = 0.33<br/>samples = 173<br/>value = [36, 137]<br/>class = Clase 1>, fillcolor="#6db7ec"] ;
363 -> 413 ;
414 [label=<Feature 2 &le; 523.0<br/>gini = 0.057<br/>samples = 34<br/>value = [1, 33]<br/>class = Clase 1>, fillcolor="#3fa0e6"] ;
413 -> 414 ;
415 [label=<gini = 0.0<br/>samples = 1<br/>value = [1, 0]<br/>class = Clase 0>, fillcolor="#e58139"] ;
414 -> 415 ;
416 [label=<gini = 0.0<br/>samples = 33<br/>value = [0, 33]<br/>class = Clase 1>, fillcolor="#399de5"] ;
414 -> 416 ;
417 [label=<Feature 2 &le; 557.5<br/>gini = 0.377<br/>samples = 139<br/>value = [35, 104]<br/>class = Clase 1>, fillcolor="#7cbeee"] ;
413 -> 417 ;
418 [label=<Feature 2 &le; 547.5<br/>gini = 0.249<br/>samples = 48<br/>value = [7, 41]<br/>class = Clase 1>, fillcolor="#5baee9"] ;
417 -> 418 ;
419 [label=<Feature 2 &le; 537.5<br/>gini = 0.289<br/>samples = 40<br/>value = [7, 33]<br/>class = Clase 1>, fillcolor="#63b2eb"] ;
418 -> 419 ;
420 [label=<Feature 2 &le; 517.5<br/>gini = 0.312<br/>samples = 31<br/>value = [6, 25]<br/>class = Clase 1>, fillcolor="#69b5eb"] ;
419 -> 420 ;
421 [label=<Feature 2 &le; 512.5<br/>gini = 0.278<br/>samples = 12<br/>value = [2, 10]<br/>class = Clase 1>, fillcolor="#61b1ea"] ;
420 -> 421 ;
422 [label=<gini = 0.278<br/>samples = 6<br/>value = [1, 5]<br/>class = Clase 1>, fillcolor="#61b1ea"] ;
421 -> 422 ;
423 [label=<gini = 0.278<br/>samples = 6<br/>value = [1, 5]<br/>class = Clase 1>, fillcolor="#61b1ea"] ;
421 -> 423 ;
424 [label=<Feature 2 &le; 522.5<br/>gini = 0.332<br/>samples = 19<br/>value = [4, 15]<br/>class = Clase 1>, fillcolor="#6eb7ec"] ;
420 -> 424 ;
425 [label=<gini = 0.444<br/>samples = 3<br/>value = [1, 2]<br/>class = Clase 1>, fillcolor="#9ccef2"] ;
424 -> 425 ;
426 [label=<Feature 2 &le; 527.5<br/>gini = 0.305<br/>samples = 16<br/>value = [3, 13]<br/>class = Clase 1>, fillcolor="#67b4eb"] ;
424 -> 426 ;
427 [label=<gini = 0.278<br/>samples = 6<br/>value = [1, 5]<br/>class = Clase 1>, fillcolor="#61b1ea"] ;
426 -> 427 ;
428 [label=<Feature 2 &le; 532.5<br/>gini = 0.32<br/>samples = 10<br/>value = [2, 8]<br/>class = Clase 1>, fillcolor="#6ab6ec"] ;
426 -> 428 ;
429 [label=<gini = 0.375<br/>samples = 4<br/>value = [1, 3]<br/>class = Clase 1>, fillcolor="#7bbeee"] ;
428 -> 429 ;
430 [label=<gini = 0.278<br/>samples = 6<br/>value = [1, 5]<br/>class = Clase 1>, fillcolor="#61b1ea"] ;
428 -> 430 ;
431 [label=<Feature 2 &le; 542.5<br/>gini = 0.198<br/>samples = 9<br/>value = [1, 8]<br/>class = Clase 1>, fillcolor="#52a9e8"] ;
419 -> 431 ;
432 [label=<gini = 0.0<br/>samples = 4<br/>value = [0, 4]<br/>class = Clase 1>, fillcolor="#399de5"] ;
431 -> 432 ;
433 [label=<gini = 0.32<br/>samples = 5<br/>value = [1, 4]<br/>class = Clase 1>, fillcolor="#6ab6ec"] ;
431 -> 433 ;
434 [label=<gini = 0.0<br/>samples = 8<br/>value = [0, 8]<br/>class = Clase 1>, fillcolor="#399de5"] ;
418 -> 434 ;
435 [label=<Feature 2 &le; 567.5<br/>gini = 0.426<br/>samples = 91<br/>value = [28, 63]<br/>class = Clase 1>, fillcolor="#91c9f1"] ;
417 -> 435 ;
436 [label=<Feature 2 &le; 562.5<br/>gini = 0.5<br/>samples = 8<br/>value = [4, 4]<br/>class = Clase 0>, fillcolor="#ffffff"] ;
435 -> 436 ;
437 [label=<gini = 0.5<br/>samples = 4<br/>value = [2, 2]<br/>class = Clase 0>, fillcolor="#ffffff"] ;
436 -> 437 ;
438 [label=<gini = 0.5<br/>samples = 4<br/>value = [2, 2]<br/>class = Clase 0>, fillcolor="#ffffff"] ;
436 -> 438 ;
439 [label=<Feature 2 &le; 597.5<br/>gini = 0.411<br/>samples = 83<br/>value = [24, 59]<br/>class = Clase 1>, fillcolor="#8ac5f0"] ;
435 -> 439 ;
440 [label=<Feature 2 &le; 582.5<br/>gini = 0.337<br/>samples = 28<br/>value = [6, 22]<br/>class = Clase 1>, fillcolor="#6fb8ec"] ;
439 -> 440 ;
441 [label=<Feature 2 &le; 572.5<br/>gini = 0.408<br/>samples = 14<br/>value = [4, 10]<br/>class = Clase 1>, fillcolor="#88c4ef"] ;
440 -> 441 ;
442 [label=<gini = 0.444<br/>samples = 6<br/>value = [2, 4]<br/>class = Clase 1>, fillcolor="#9ccef2"] ;
441 -> 442 ;
443 [label=<Feature 2 &le; 577.5<br/>gini = 0.375<br/>samples = 8<br/>value = [2, 6]<br/>class = Clase 1>, fillcolor="#7bbeee"] ;
441 -> 443 ;
444 [label=<gini = 0.375<br/>samples = 4<br/>value = [1, 3]<br/>class = Clase 1>, fillcolor="#7bbeee"] ;
443 -> 444 ;
445 [label=<gini = 0.375<br/>samples = 4<br/>value = [1, 3]<br/>class = Clase 1>, fillcolor="#7bbeee"] ;
443 -> 445 ;
446 [label=<Feature 2 &le; 587.5<br/>gini = 0.245<br/>samples = 14<br/>value = [2, 12]<br/>class = Clase 1>, fillcolor="#5aade9"] ;
440 -> 446 ;
447 [label=<gini = 0.0<br/>samples = 5<br/>value = [0, 5]<br/>class = Clase 1>, fillcolor="#399de5"] ;
446 -> 447 ;
448 [label=<Feature 2 &le; 592.5<br/>gini = 0.346<br/>samples = 9<br/>value = [2, 7]<br/>class = Clase 1>, fillcolor="#72b9ec"] ;
446 -> 448 ;
449 [label=<gini = 0.32<br/>samples = 5<br/>value = [1, 4]<br/>class = Clase 1>, fillcolor="#6ab6ec"] ;
448 -> 449 ;
450 [label=<gini = 0.375<br/>samples = 4<br/>value = [1, 3]<br/>class = Clase 1>, fillcolor="#7bbeee"] ;
448 -> 450 ;
451 [label=<Feature 2 &le; 602.5<br/>gini = 0.44<br/>samples = 55<br/>value = [18, 37]<br/>class = Clase 1>, fillcolor="#99cdf2"] ;
439 -> 451 ;
452 [label=<gini = 0.5<br/>samples = 4<br/>value = [2, 2]<br/>class = Clase 0>, fillcolor="#ffffff"] ;
451 -> 452 ;
453 [label=<Feature 2 &le; 612.5<br/>gini = 0.431<br/>samples = 51<br/>value = [16, 35]<br/>class = Clase 1>, fillcolor="#94caf1"] ;
451 -> 453 ;
454 [label=<Feature 2 &le; 607.5<br/>gini = 0.346<br/>samples = 9<br/>value = [2, 7]<br/>class = Clase 1>, fillcolor="#72b9ec"] ;
453 -> 454 ;
455 [label=<gini = 0.375<br/>samples = 4<br/>value = [1, 3]<br/>class = Clase 1>, fillcolor="#7bbeee"] ;
454 -> 455 ;
456 [label=<gini = 0.32<br/>samples = 5<br/>value = [1, 4]<br/>class = Clase 1>, fillcolor="#6ab6ec"] ;
454 -> 456 ;
457 [label=<Feature 2 &le; 647.5<br/>gini = 0.444<br/>samples = 42<br/>value = [14, 28]<br/>class = Clase 1>, fillcolor="#9ccef2"] ;
453 -> 457 ;
458 [label=<Feature 2 &le; 632.5<br/>gini = 0.456<br/>samples = 37<br/>value = [13, 24]<br/>class = Clase 1>, fillcolor="#a4d2f3"] ;
457 -> 458 ;
459 [label=<Feature 2 &le; 622.5<br/>gini = 0.472<br/>samples = 21<br/>value = [8, 13]<br/>class = Clase 1>, fillcolor="#b3d9f5"] ;
458 -> 459 ;
460 [label=<Feature 2 &le; 617.5<br/>gini = 0.444<br/>samples = 12<br/>value = [4, 8]<br/>class = Clase 1>, fillcolor="#9ccef2"] ;
459 -> 460 ;
461 [label=<gini = 0.444<br/>samples = 6<br/>value = [2, 4]<br/>class = Clase 1>, fillcolor="#9ccef2"] ;
460 -> 461 ;
462 [label=<gini = 0.444<br/>samples = 6<br/>value = [2, 4]<br/>class = Clase 1>, fillcolor="#9ccef2"] ;
460 -> 462 ;
463 [label=<Feature 2 &le; 627.5<br/>gini = 0.494<br/>samples = 9<br/>value = [4, 5]<br/>class = Clase 1>, fillcolor="#d7ebfa"] ;
459 -> 463 ;
464 [label=<gini = 0.5<br/>samples = 4<br/>value = [2, 2]<br/>class = Clase 0>, fillcolor="#ffffff"] ;
463 -> 464 ;
465 [label=<gini = 0.48<br/>samples = 5<br/>value = [2, 3]<br/>class = Clase 1>, fillcolor="#bddef6"] ;
463 -> 465 ;
466 [label=<Feature 2 &le; 637.5<br/>gini = 0.43<br/>samples = 16<br/>value = [5, 11]<br/>class = Clase 1>, fillcolor="#93caf1"] ;
458 -> 466 ;
467 [label=<gini = 0.32<br/>samples = 5<br/>value = [1, 4]<br/>class = Clase 1>, fillcolor="#6ab6ec"] ;
466 -> 467 ;
468 [label=<Feature 2 &le; 642.5<br/>gini = 0.463<br/>samples = 11<br/>value = [4, 7]<br/>class = Clase 1>, fillcolor="#aad5f4"] ;
466 -> 468 ;
469 [label=<gini = 0.48<br/>samples = 5<br/>value = [2, 3]<br/>class = Clase 1>, fillcolor="#bddef6"] ;
468 -> 469 ;
470 [label=<gini = 0.444<br/>samples = 6<br/>value = [2, 4]<br/>class = Clase 1>, fillcolor="#9ccef2"] ;
468 -> 470 ;
471 [label=<gini = 0.32<br/>samples = 5<br/>value = [1, 4]<br/>class = Clase 1>, fillcolor="#6ab6ec"] ;
457 -> 471 ;
472 [label=<Feature 2 &le; 454.0<br/>gini = 0.488<br/>samples = 111<br/>value = [47, 64]<br/>class = Clase 1>, fillcolor="#cae5f8"] ;
362 -> 472 ;
473 [label=<Feature 2 &le; 418.0<br/>gini = 0.211<br/>samples = 25<br/>value = [3, 22]<br/>class = Clase 1>, fillcolor="#54aae9"] ;
472 -> 473 ;
474 [label=<Feature 2 &le; 406.0<br/>gini = 0.397<br/>samples = 11<br/>value = [3, 8]<br/>class = Clase 1>, fillcolor="#83c2ef"] ;
473 -> 474 ;
475 [label=<gini = 0.0<br/>samples = 5<br/>value = [0, 5]<br/>class = Clase 1>, fillcolor="#399de5"] ;
474 -> 475 ;
476 [label=<Feature 2 &le; 410.0<br/>gini = 0.5<br/>samples = 6<br/>value = [3, 3]<br/>class = Clase 0>, fillcolor="#ffffff"] ;
474 -> 476 ;
477 [label=<gini = 0.5<br/>samples = 2<br/>value = [1, 1]<br/>class = Clase 0>, fillcolor="#ffffff"] ;
476 -> 477 ;
478 [label=<Feature 2 &le; 414.0<br/>gini = 0.5<br/>samples = 4<br/>value = [2, 2]<br/>class = Clase 0>, fillcolor="#ffffff"] ;
476 -> 478 ;
479 [label=<gini = 0.5<br/>samples = 2<br/>value = [1, 1]<br/>class = Clase 0>, fillcolor="#ffffff"] ;
478 -> 479 ;
480 [label=<gini = 0.5<br/>samples = 2<br/>value = [1, 1]<br/>class = Clase 0>, fillcolor="#ffffff"] ;
478 -> 480 ;
481 [label=<gini = 0.0<br/>samples = 14<br/>value = [0, 14]<br/>class = Clase 1>, fillcolor="#399de5"] ;
473 -> 481 ;
482 [label=<Feature 2 &le; 486.0<br/>gini = 0.5<br/>samples = 86<br/>value = [44, 42]<br/>class = Clase 0>, fillcolor="#fef9f6"] ;
472 -> 482 ;
483 [label=<Feature 2 &le; 482.0<br/>gini = 0.473<br/>samples = 13<br/>value = [5, 8]<br/>class = Clase 1>, fillcolor="#b5daf5"] ;
482 -> 483 ;
484 [label=<Feature 2 &le; 470.0<br/>gini = 0.486<br/>samples = 12<br/>value = [5, 7]<br/>class = Clase 1>, fillcolor="#c6e3f8"] ;
483 -> 484 ;
485 [label=<Feature 2 &le; 466.0<br/>gini = 0.444<br/>samples = 6<br/>value = [2, 4]<br/>class = Clase 1>, fillcolor="#9ccef2"] ;
484 -> 485 ;
486 [label=<Feature 2 &le; 458.0<br/>gini = 0.48<br/>samples = 5<br/>value = [2, 3]<br/>class = Clase 1>, fillcolor="#bddef6"] ;
485 -> 486 ;
487 [label=<gini = 0.5<br/>samples = 2<br/>value = [1, 1]<br/>class = Clase 0>, fillcolor="#ffffff"] ;
486 -> 487 ;
488 [label=<Feature 2 &le; 462.0<br/>gini = 0.444<br/>samples = 3<br/>value = [1, 2]<br/>class = Clase 1>, fillcolor="#9ccef2"] ;
486 -> 488 ;
489 [label=<gini = 0.0<br/>samples = 1<br/>value = [0, 1]<br/>class = Clase 1>, fillcolor="#399de5"] ;
488 -> 489 ;
490 [label=<gini = 0.5<br/>samples = 2<br/>value = [1, 1]<br/>class = Clase 0>, fillcolor="#ffffff"] ;
488 -> 490 ;
491 [label=<gini = 0.0<br/>samples = 1<br/>value = [0, 1]<br/>class = Clase 1>, fillcolor="#399de5"] ;
485 -> 491 ;
492 [label=<Feature 2 &le; 474.0<br/>gini = 0.5<br/>samples = 6<br/>value = [3, 3]<br/>class = Clase 0>, fillcolor="#ffffff"] ;
484 -> 492 ;
493 [label=<gini = 0.5<br/>samples = 2<br/>value = [1, 1]<br/>class = Clase 0>, fillcolor="#ffffff"] ;
492 -> 493 ;
494 [label=<Feature 2 &le; 478.0<br/>gini = 0.5<br/>samples = 4<br/>value = [2, 2]<br/>class = Clase 0>, fillcolor="#ffffff"] ;
492 -> 494 ;
495 [label=<gini = 0.5<br/>samples = 2<br/>value = [1, 1]<br/>class = Clase 0>, fillcolor="#ffffff"] ;
494 -> 495 ;
496 [label=<gini = 0.5<br/>samples = 2<br/>value = [1, 1]<br/>class = Clase 0>, fillcolor="#ffffff"] ;
494 -> 496 ;
497 [label=<gini = 0.0<br/>samples = 1<br/>value = [0, 1]<br/>class = Clase 1>, fillcolor="#399de5"] ;
483 -> 497 ;
498 [label=<Feature 2 &le; 550.0<br/>gini = 0.498<br/>samples = 73<br/>value = [39, 34]<br/>class = Clase 0>, fillcolor="#fcefe6"] ;
482 -> 498 ;
499 [label=<Feature 2 &le; 538.0<br/>gini = 0.473<br/>samples = 26<br/>value = [16, 10]<br/>class = Clase 0>, fillcolor="#f5d0b5"] ;
498 -> 499 ;
500 [label=<Feature 2 &le; 514.0<br/>gini = 0.496<br/>samples = 22<br/>value = [12, 10]<br/>class = Clase 0>, fillcolor="#fbeade"] ;
499 -> 500 ;
501 [label=<Feature 2 &le; 490.0<br/>gini = 0.5<br/>samples = 12<br/>value = [6, 6]<br/>class = Clase 0>, fillcolor="#ffffff"] ;
500 -> 501 ;
502 [label=<gini = 0.5<br/>samples = 2<br/>value = [1, 1]<br/>class = Clase 0>, fillcolor="#ffffff"] ;
501 -> 502 ;
503 [label=<Feature 2 &le; 496.0<br/>gini = 0.5<br/>samples = 10<br/>value = [5, 5]<br/>class = Clase 0>, fillcolor="#ffffff"] ;
501 -> 503 ;
504 [label=<gini = 0.5<br/>samples = 2<br/>value = [1, 1]<br/>class = Clase 0>, fillcolor="#ffffff"] ;
503 -> 504 ;
505 [label=<Feature 2 &le; 502.0<br/>gini = 0.5<br/>samples = 8<br/>value = [4, 4]<br/>class = Clase 0>, fillcolor="#ffffff"] ;
503 -> 505 ;
506 [label=<gini = 0.5<br/>samples = 2<br/>value = [1, 1]<br/>class = Clase 0>, fillcolor="#ffffff"] ;
505 -> 506 ;
507 [label=<Feature 2 &le; 506.0<br/>gini = 0.5<br/>samples = 6<br/>value = [3, 3]<br/>class = Clase 0>, fillcolor="#ffffff"] ;
505 -> 507 ;
508 [label=<gini = 0.5<br/>samples = 2<br/>value = [1, 1]<br/>class = Clase 0>, fillcolor="#ffffff"] ;
507 -> 508 ;
509 [label=<Feature 2 &le; 510.0<br/>gini = 0.5<br/>samples = 4<br/>value = [2, 2]<br/>class = Clase 0>, fillcolor="#ffffff"] ;
507 -> 509 ;
510 [label=<gini = 0.5<br/>samples = 2<br/>value = [1, 1]<br/>class = Clase 0>, fillcolor="#ffffff"] ;
509 -> 510 ;
511 [label=<gini = 0.5<br/>samples = 2<br/>value = [1, 1]<br/>class = Clase 0>, fillcolor="#ffffff"] ;
509 -> 511 ;
512 [label=<Feature 2 &le; 518.0<br/>gini = 0.48<br/>samples = 10<br/>value = [6, 4]<br/>class = Clase 0>, fillcolor="#f6d5bd"] ;
500 -> 512 ;
513 [label=<gini = 0.0<br/>samples = 1<br/>value = [1, 0]<br/>class = Clase 0>, fillcolor="#e58139"] ;
512 -> 513 ;
514 [label=<Feature 2 &le; 526.0<br/>gini = 0.494<br/>samples = 9<br/>value = [5, 4]<br/>class = Clase 0>, fillcolor="#fae6d7"] ;
512 -> 514 ;
515 [label=<Feature 2 &le; 522.0<br/>gini = 0.444<br/>samples = 3<br/>value = [2, 1]<br/>class = Clase 0>, fillcolor="#f2c09c"] ;
514 -> 515 ;
516 [label=<gini = 0.5<br/>samples = 2<br/>value = [1, 1]<br/>class = Clase 0>, fillcolor="#ffffff"] ;
515 -> 516 ;
517 [label=<gini = 0.0<br/>samples = 1<br/>value = [1, 0]<br/>class = Clase 0>, fillcolor="#e58139"] ;
515 -> 517 ;
518 [label=<Feature 2 &le; 530.0<br/>gini = 0.5<br/>samples = 6<br/>value = [3, 3]<br/>class = Clase 0>, fillcolor="#ffffff"] ;
514 -> 518 ;
519 [label=<gini = 0.5<br/>samples = 2<br/>value = [1, 1]<br/>class = Clase 0>, fillcolor="#ffffff"] ;
518 -> 519 ;
520 [label=<Feature 2 &le; 534.0<br/>gini = 0.5<br/>samples = 4<br/>value = [2, 2]<br/>class = Clase 0>, fillcolor="#ffffff"] ;
518 -> 520 ;
521 [label=<gini = 0.5<br/>samples = 2<br/>value = [1, 1]<br/>class = Clase 0>, fillcolor="#ffffff"] ;
520 -> 521 ;
522 [label=<gini = 0.5<br/>samples = 2<br/>value = [1, 1]<br/>class = Clase 0>, fillcolor="#ffffff"] ;
520 -> 522 ;
523 [label=<gini = 0.0<br/>samples = 4<br/>value = [4, 0]<br/>class = Clase 0>, fillcolor="#e58139"] ;
499 -> 523 ;
524 [label=<Feature 2 &le; 588.0<br/>gini = 0.5<br/>samples = 47<br/>value = [23.0, 24.0]<br/>class = Clase 1>, fillcolor="#f7fbfe"] ;
498 -> 524 ;
525 [label=<Feature 2 &le; 582.0<br/>gini = 0.492<br/>samples = 16<br/>value = [7, 9]<br/>class = Clase 1>, fillcolor="#d3e9f9"] ;
524 -> 525 ;
526 [label=<Feature 2 &le; 566.0<br/>gini = 0.498<br/>samples = 15<br/>value = [7, 8]<br/>class = Clase 1>, fillcolor="#e6f3fc"] ;
525 -> 526 ;
527 [label=<Feature 2 &le; 562.0<br/>gini = 0.49<br/>samples = 7<br/>value = [3, 4]<br/>class = Clase 1>, fillcolor="#cee6f8"] ;
526 -> 527 ;
528 [label=<Feature 2 &le; 554.0<br/>gini = 0.5<br/>samples = 6<br/>value = [3, 3]<br/>class = Clase 0>, fillcolor="#ffffff"] ;
527 -> 528 ;
529 [label=<gini = 0.5<br/>samples = 2<br/>value = [1, 1]<br/>class = Clase 0>, fillcolor="#ffffff"] ;
528 -> 529 ;
530 [label=<Feature 2 &le; 558.0<br/>gini = 0.5<br/>samples = 4<br/>value = [2, 2]<br/>class = Clase 0>, fillcolor="#ffffff"] ;
528 -> 530 ;
531 [label=<gini = 0.5<br/>samples = 2<br/>value = [1, 1]<br/>class = Clase 0>, fillcolor="#ffffff"] ;
530 -> 531 ;
532 [label=<gini = 0.5<br/>samples = 2<br/>value = [1, 1]<br/>class = Clase 0>, fillcolor="#ffffff"] ;
530 -> 532 ;
533 [label=<gini = 0.0<br/>samples = 1<br/>value = [0, 1]<br/>class = Clase 1>, fillcolor="#399de5"] ;
527 -> 533 ;
534 [label=<Feature 2 &le; 570.0<br/>gini = 0.5<br/>samples = 8<br/>value = [4, 4]<br/>class = Clase 0>, fillcolor="#ffffff"] ;
526 -> 534 ;
535 [label=<gini = 0.5<br/>samples = 2<br/>value = [1, 1]<br/>class = Clase 0>, fillcolor="#ffffff"] ;
534 -> 535 ;
536 [label=<Feature 2 &le; 574.0<br/>gini = 0.5<br/>samples = 6<br/>value = [3, 3]<br/>class = Clase 0>, fillcolor="#ffffff"] ;
534 -> 536 ;
537 [label=<gini = 0.5<br/>samples = 2<br/>value = [1, 1]<br/>class = Clase 0>, fillcolor="#ffffff"] ;
536 -> 537 ;
538 [label=<Feature 2 &le; 578.0<br/>gini = 0.5<br/>samples = 4<br/>value = [2, 2]<br/>class = Clase 0>, fillcolor="#ffffff"] ;
536 -> 538 ;
539 [label=<gini = 0.5<br/>samples = 2<br/>value = [1, 1]<br/>class = Clase 0>, fillcolor="#ffffff"] ;
538 -> 539 ;
540 [label=<gini = 0.5<br/>samples = 2<br/>value = [1, 1]<br/>class = Clase 0>, fillcolor="#ffffff"] ;
538 -> 540 ;
541 [label=<gini = 0.0<br/>samples = 1<br/>value = [0, 1]<br/>class = Clase 1>, fillcolor="#399de5"] ;
525 -> 541 ;
542 [label=<Feature 2 &le; 602.0<br/>gini = 0.499<br/>samples = 31<br/>value = [16, 15]<br/>class = Clase 0>, fillcolor="#fdf7f3"] ;
524 -> 542 ;
543 [label=<Feature 2 &le; 598.0<br/>gini = 0.48<br/>samples = 5<br/>value = [3, 2]<br/>class = Clase 0>, fillcolor="#f6d5bd"] ;
542 -> 543 ;
544 [label=<Feature 2 &le; 594.0<br/>gini = 0.5<br/>samples = 4<br/>value = [2, 2]<br/>class = Clase 0>, fillcolor="#ffffff"] ;
543 -> 544 ;
545 [label=<gini = 0.5<br/>samples = 2<br/>value = [1, 1]<br/>class = Clase 0>, fillcolor="#ffffff"] ;
544 -> 545 ;
546 [label=<gini = 0.5<br/>samples = 2<br/>value = [1, 1]<br/>class = Clase 0>, fillcolor="#ffffff"] ;
544 -> 546 ;
547 [label=<gini = 0.0<br/>samples = 1<br/>value = [1, 0]<br/>class = Clase 0>, fillcolor="#e58139"] ;
543 -> 547 ;
548 [label=<Feature 2 &le; 606.0<br/>gini = 0.5<br/>samples = 26<br/>value = [13, 13]<br/>class = Clase 0>, fillcolor="#ffffff"] ;
542 -> 548 ;
549 [label=<gini = 0.5<br/>samples = 2<br/>value = [1, 1]<br/>class = Clase 0>, fillcolor="#ffffff"] ;
548 -> 549 ;
550 [label=<Feature 2 &le; 610.0<br/>gini = 0.5<br/>samples = 24<br/>value = [12, 12]<br/>class = Clase 0>, fillcolor="#ffffff"] ;
548 -> 550 ;
551 [label=<gini = 0.5<br/>samples = 2<br/>value = [1, 1]<br/>class = Clase 0>, fillcolor="#ffffff"] ;
550 -> 551 ;
552 [label=<Feature 2 &le; 614.0<br/>gini = 0.5<br/>samples = 22<br/>value = [11, 11]<br/>class = Clase 0>, fillcolor="#ffffff"] ;
550 -> 552 ;
553 [label=<gini = 0.5<br/>samples = 2<br/>value = [1, 1]<br/>class = Clase 0>, fillcolor="#ffffff"] ;
552 -> 553 ;
554 [label=<Feature 2 &le; 618.0<br/>gini = 0.5<br/>samples = 20<br/>value = [10, 10]<br/>class = Clase 0>, fillcolor="#ffffff"] ;
552 -> 554 ;
555 [label=<gini = 0.5<br/>samples = 2<br/>value = [1, 1]<br/>class = Clase 0>, fillcolor="#ffffff"] ;
554 -> 555 ;
556 [label=<Feature 2 &le; 622.0<br/>gini = 0.5<br/>samples = 18<br/>value = [9, 9]<br/>class = Clase 0>, fillcolor="#ffffff"] ;
554 -> 556 ;
557 [label=<gini = 0.5<br/>samples = 2<br/>value = [1, 1]<br/>class = Clase 0>, fillcolor="#ffffff"] ;
556 -> 557 ;
558 [label=<Feature 2 &le; 626.0<br/>gini = 0.5<br/>samples = 16<br/>value = [8, 8]<br/>class = Clase 0>, fillcolor="#ffffff"] ;
556 -> 558 ;
559 [label=<gini = 0.5<br/>samples = 2<br/>value = [1, 1]<br/>class = Clase 0>, fillcolor="#ffffff"] ;
558 -> 559 ;
560 [label=<Feature 2 &le; 630.0<br/>gini = 0.5<br/>samples = 14<br/>value = [7, 7]<br/>class = Clase 0>, fillcolor="#ffffff"] ;
558 -> 560 ;
561 [label=<gini = 0.5<br/>samples = 2<br/>value = [1, 1]<br/>class = Clase 0>, fillcolor="#ffffff"] ;
560 -> 561 ;
562 [label=<Feature 2 &le; 634.0<br/>gini = 0.5<br/>samples = 12<br/>value = [6, 6]<br/>class = Clase 0>, fillcolor="#ffffff"] ;
560 -> 562 ;
563 [label=<gini = 0.5<br/>samples = 2<br/>value = [1, 1]<br/>class = Clase 0>, fillcolor="#ffffff"] ;
562 -> 563 ;
564 [label=<Feature 2 &le; 638.0<br/>gini = 0.5<br/>samples = 10<br/>value = [5, 5]<br/>class = Clase 0>, fillcolor="#ffffff"] ;
562 -> 564 ;
565 [label=<gini = 0.5<br/>samples = 2<br/>value = [1, 1]<br/>class = Clase 0>, fillcolor="#ffffff"] ;
564 -> 565 ;
566 [label=<Feature 2 &le; 642.0<br/>gini = 0.5<br/>samples = 8<br/>value = [4, 4]<br/>class = Clase 0>, fillcolor="#ffffff"] ;
564 -> 566 ;
567 [label=<gini = 0.5<br/>samples = 2<br/>value = [1, 1]<br/>class = Clase 0>, fillcolor="#ffffff"] ;
566 -> 567 ;
568 [label=<Feature 2 &le; 646.0<br/>gini = 0.5<br/>samples = 6<br/>value = [3, 3]<br/>class = Clase 0>, fillcolor="#ffffff"] ;
566 -> 568 ;
569 [label=<gini = 0.5<br/>samples = 2<br/>value = [1, 1]<br/>class = Clase 0>, fillcolor="#ffffff"] ;
568 -> 569 ;
570 [label=<Feature 2 &le; 650.0<br/>gini = 0.5<br/>samples = 4<br/>value = [2, 2]<br/>class = Clase 0>, fillcolor="#ffffff"] ;
568 -> 570 ;
571 [label=<gini = 0.5<br/>samples = 2<br/>value = [1, 1]<br/>class = Clase 0>, fillcolor="#ffffff"] ;
570 -> 571 ;
572 [label=<gini = 0.5<br/>samples = 2<br/>value = [1, 1]<br/>class = Clase 0>, fillcolor="#ffffff"] ;
570 -> 572 ;
573 [label=<Feature 1 &le; -5.5<br/>gini = 0.498<br/>samples = 85<br/>value = [45, 40]<br/>class = Clase 0>, fillcolor="#fcf1e9"] ;
361 -> 573 ;
574 [label=<Feature 2 &le; 690.0<br/>gini = 0.337<br/>samples = 14<br/>value = [3, 11]<br/>class = Clase 1>, fillcolor="#6fb8ec"] ;
573 -> 574 ;
575 [label=<gini = 0.0<br/>samples = 8<br/>value = [0, 8]<br/>class = Clase 1>, fillcolor="#399de5"] ;
574 -> 575 ;
576 [label=<Feature 1 &le; -7.0<br/>gini = 0.5<br/>samples = 6<br/>value = [3, 3]<br/>class = Clase 0>, fillcolor="#ffffff"] ;
574 -> 576 ;
577 [label=<Feature 2 &le; 696.0<br/>gini = 0.375<br/>samples = 4<br/>value = [3, 1]<br/>class = Clase 0>, fillcolor="#eeab7b"] ;
576 -> 577 ;
578 [label=<gini = 0.0<br/>samples = 1<br/>value = [1, 0]<br/>class = Clase 0>, fillcolor="#e58139"] ;
577 -> 578 ;
579 [label=<Feature 1 &le; -9.0<br/>gini = 0.444<br/>samples = 3<br/>value = [2, 1]<br/>class = Clase 0>, fillcolor="#f2c09c"] ;
577 -> 579 ;
580 [label=<gini = 0.0<br/>samples = 1<br/>value = [1, 0]<br/>class = Clase 0>, fillcolor="#e58139"] ;
579 -> 580 ;
581 [label=<gini = 0.5<br/>samples = 2<br/>value = [1, 1]<br/>class = Clase 0>, fillcolor="#ffffff"] ;
579 -> 581 ;
582 [label=<gini = 0.0<br/>samples = 2<br/>value = [0, 2]<br/>class = Clase 1>, fillcolor="#399de5"] ;
576 -> 582 ;
583 [label=<Feature 2 &le; 682.0<br/>gini = 0.483<br/>samples = 71<br/>value = [42, 29]<br/>class = Clase 0>, fillcolor="#f7d8c2"] ;
573 -> 583 ;
584 [label=<Feature 2 &le; 655.5<br/>gini = 0.435<br/>samples = 47<br/>value = [32, 15]<br/>class = Clase 0>, fillcolor="#f1bc96"] ;
583 -> 584 ;
585 [label=<gini = 0.32<br/>samples = 5<br/>value = [4, 1]<br/>class = Clase 0>, fillcolor="#eca06a"] ;
584 -> 585 ;
586 [label=<Feature 2 &le; 658.0<br/>gini = 0.444<br/>samples = 42<br/>value = [28, 14]<br/>class = Clase 0>, fillcolor="#f2c09c"] ;
584 -> 586 ;
587 [label=<gini = 0.5<br/>samples = 2<br/>value = [1, 1]<br/>class = Clase 0>, fillcolor="#ffffff"] ;
586 -> 587 ;
588 [label=<Feature 1 &le; -4.5<br/>gini = 0.439<br/>samples = 40<br/>value = [27, 13]<br/>class = Clase 0>, fillcolor="#f2be98"] ;
586 -> 588 ;
589 [label=<Feature 2 &le; 672.5<br/>gini = 0.459<br/>samples = 28<br/>value = [18, 10]<br/>class = Clase 0>, fillcolor="#f3c7a7"] ;
588 -> 589 ;
590 [label=<Feature 2 &le; 662.5<br/>gini = 0.375<br/>samples = 16<br/>value = [12, 4]<br/>class = Clase 0>, fillcolor="#eeab7b"] ;
589 -> 590 ;
591 [label=<gini = 0.278<br/>samples = 6<br/>value = [5, 1]<br/>class = Clase 0>, fillcolor="#ea9a61"] ;
590 -> 591 ;
592 [label=<Feature 2 &le; 667.5<br/>gini = 0.42<br/>samples = 10<br/>value = [7, 3]<br/>class = Clase 0>, fillcolor="#f0b78e"] ;
590 -> 592 ;
593 [label=<gini = 0.48<br/>samples = 5<br/>value = [3, 2]<br/>class = Clase 0>, fillcolor="#f6d5bd"] ;
592 -> 593 ;
594 [label=<gini = 0.32<br/>samples = 5<br/>value = [4, 1]<br/>class = Clase 0>, fillcolor="#eca06a"] ;
592 -> 594 ;
595 [label=<Feature 2 &le; 677.5<br/>gini = 0.5<br/>samples = 12<br/>value = [6, 6]<br/>class = Clase 0>, fillcolor="#ffffff"] ;
589 -> 595 ;
596 [label=<gini = 0.5<br/>samples = 6<br/>value = [3, 3]<br/>class = Clase 0>, fillcolor="#ffffff"] ;
595 -> 596 ;
597 [label=<gini = 0.5<br/>samples = 6<br/>value = [3, 3]<br/>class = Clase 0>, fillcolor="#ffffff"] ;
595 -> 597 ;
598 [label=<Feature 2 &le; 670.0<br/>gini = 0.375<br/>samples = 12<br/>value = [9, 3]<br/>class = Clase 0>, fillcolor="#eeab7b"] ;
588 -> 598 ;
599 [label=<Feature 2 &le; 662.0<br/>gini = 0.5<br/>samples = 6<br/>value = [3, 3]<br/>class = Clase 0>, fillcolor="#ffffff"] ;
598 -> 599 ;
600 [label=<gini = 0.5<br/>samples = 2<br/>value = [1, 1]<br/>class = Clase 0>, fillcolor="#ffffff"] ;
599 -> 600 ;
601 [label=<Feature 2 &le; 666.0<br/>gini = 0.5<br/>samples = 4<br/>value = [2, 2]<br/>class = Clase 0>, fillcolor="#ffffff"] ;
599 -> 601 ;
602 [label=<gini = 0.5<br/>samples = 2<br/>value = [1, 1]<br/>class = Clase 0>, fillcolor="#ffffff"] ;
601 -> 602 ;
603 [label=<gini = 0.5<br/>samples = 2<br/>value = [1, 1]<br/>class = Clase 0>, fillcolor="#ffffff"] ;
601 -> 603 ;
604 [label=<gini = 0.0<br/>samples = 6<br/>value = [6, 0]<br/>class = Clase 0>, fillcolor="#e58139"] ;
598 -> 604 ;
605 [label=<Feature 1 &le; -4.5<br/>gini = 0.486<br/>samples = 24<br/>value = [10, 14]<br/>class = Clase 1>, fillcolor="#c6e3f8"] ;
583 -> 605 ;
606 [label=<Feature 2 &le; 687.5<br/>gini = 0.444<br/>samples = 18<br/>value = [6, 12]<br/>class = Clase 1>, fillcolor="#9ccef2"] ;
605 -> 606 ;
607 [label=<gini = 0.5<br/>samples = 6<br/>value = [3, 3]<br/>class = Clase 0>, fillcolor="#ffffff"] ;
606 -> 607 ;
608 [label=<Feature 2 &le; 697.5<br/>gini = 0.375<br/>samples = 12<br/>value = [3, 9]<br/>class = Clase 1>, fillcolor="#7bbeee"] ;
606 -> 608 ;
609 [label=<Feature 2 &le; 692.5<br/>gini = 0.32<br/>samples = 10<br/>value = [2, 8]<br/>class = Clase 1>, fillcolor="#6ab6ec"] ;
608 -> 609 ;
610 [label=<gini = 0.32<br/>samples = 5<br/>value = [1, 4]<br/>class = Clase 1>, fillcolor="#6ab6ec"] ;
609 -> 610 ;
611 [label=<gini = 0.32<br/>samples = 5<br/>value = [1, 4]<br/>class = Clase 1>, fillcolor="#6ab6ec"] ;
609 -> 611 ;
612 [label=<gini = 0.5<br/>samples = 2<br/>value = [1, 1]<br/>class = Clase 0>, fillcolor="#ffffff"] ;
608 -> 612 ;
613 [label=<Feature 2 &le; 690.0<br/>gini = 0.444<br/>samples = 6<br/>value = [4, 2]<br/>class = Clase 0>, fillcolor="#f2c09c"] ;
605 -> 613 ;
614 [label=<Feature 2 &le; 686.0<br/>gini = 0.5<br/>samples = 4<br/>value = [2, 2]<br/>class = Clase 0>, fillcolor="#ffffff"] ;
613 -> 614 ;
615 [label=<gini = 0.5<br/>samples = 2<br/>value = [1, 1]<br/>class = Clase 0>, fillcolor="#ffffff"] ;
614 -> 615 ;
616 [label=<gini = 0.5<br/>samples = 2<br/>value = [1, 1]<br/>class = Clase 0>, fillcolor="#ffffff"] ;
614 -> 616 ;
617 [label=<gini = 0.0<br/>samples = 2<br/>value = [2, 0]<br/>class = Clase 0>, fillcolor="#e58139"] ;
613 -> 617 ;
618 [label=<Feature 2 &le; 692.5<br/>gini = 0.498<br/>samples = 231<br/>value = [122, 109]<br/>class = Clase 0>, fillcolor="#fcf2ea"] ;
258 -> 618 ;
619 [label=<Feature 2 &le; 683.5<br/>gini = 0.499<br/>samples = 228<br/>value = [119.0, 109.0]<br/>class = Clase 0>, fillcolor="#fdf4ee"] ;
618 -> 619 ;
620 [label=<Feature 2 &le; 257.5<br/>gini = 0.498<br/>samples = 225<br/>value = [119.0, 106.0]<br/>class = Clase 0>, fillcolor="#fcf1e9"] ;
619 -> 620 ;
621 [label=<gini = 0.0<br/>samples = 1<br/>value = [0, 1]<br/>class = Clase 1>, fillcolor="#399de5"] ;
620 -> 621 ;
622 [label=<Feature 2 &le; 500.5<br/>gini = 0.498<br/>samples = 224<br/>value = [119, 105]<br/>class = Clase 0>, fillcolor="#fcf0e8"] ;
620 -> 622 ;
623 [label=<Feature 2 &le; 488.5<br/>gini = 0.493<br/>samples = 123<br/>value = [69, 54]<br/>class = Clase 0>, fillcolor="#f9e4d4"] ;
622 -> 623 ;
624 [label=<Feature 2 &le; 410.5<br/>gini = 0.496<br/>samples = 118<br/>value = [64, 54]<br/>class = Clase 0>, fillcolor="#fbebe0"] ;
623 -> 624 ;
625 [label=<Feature 2 &le; 395.5<br/>gini = 0.491<br/>samples = 76<br/>value = [43, 33]<br/>class = Clase 0>, fillcolor="#f9e2d1"] ;
624 -> 625 ;
626 [label=<Feature 2 &le; 365.5<br/>gini = 0.498<br/>samples = 68<br/>value = [36, 32]<br/>class = Clase 0>, fillcolor="#fcf1e9"] ;
625 -> 626 ;
627 [label=<Feature 2 &le; 358.0<br/>gini = 0.495<br/>samples = 51<br/>value = [28.0, 23.0]<br/>class = Clase 0>, fillcolor="#fae8dc"] ;
626 -> 627 ;
628 [label=<Feature 2 &le; 350.5<br/>gini = 0.497<br/>samples = 50<br/>value = [27, 23]<br/>class = Clase 0>, fillcolor="#fbece2"] ;
627 -> 628 ;
629 [label=<Feature 2 &le; 344.5<br/>gini = 0.498<br/>samples = 47<br/>value = [25, 22]<br/>class = Clase 0>, fillcolor="#fcf0e7"] ;
628 -> 629 ;
630 [label=<Feature 2 &le; 332.5<br/>gini = 0.496<br/>samples = 44<br/>value = [24, 20]<br/>class = Clase 0>, fillcolor="#fbeade"] ;
629 -> 630 ;
631 [label=<Feature 2 &le; 329.5<br/>gini = 0.499<br/>samples = 38<br/>value = [20, 18]<br/>class = Clase 0>, fillcolor="#fcf2eb"] ;
630 -> 631 ;
632 [label=<Feature 2 &le; 326.5<br/>gini = 0.497<br/>samples = 37<br/>value = [20, 17]<br/>class = Clase 0>, fillcolor="#fbece1"] ;
631 -> 632 ;
633 [label=<Feature 2 &le; 323.5<br/>gini = 0.498<br/>samples = 36<br/>value = [19, 17]<br/>class = Clase 0>, fillcolor="#fcf2ea"] ;
632 -> 633 ;
634 [label=<Feature 2 &le; 302.5<br/>gini = 0.496<br/>samples = 35<br/>value = [19, 16]<br/>class = Clase 0>, fillcolor="#fbebe0"] ;
633 -> 634 ;
635 [label=<Feature 2 &le; 287.5<br/>gini = 0.499<br/>samples = 27<br/>value = [14, 13]<br/>class = Clase 0>, fillcolor="#fdf6f1"] ;
634 -> 635 ;
636 [label=<Feature 2 &le; 284.5<br/>gini = 0.494<br/>samples = 18<br/>value = [10, 8]<br/>class = Clase 0>, fillcolor="#fae6d7"] ;
635 -> 636 ;
637 [label=<Feature 2 &le; 269.5<br/>gini = 0.498<br/>samples = 17<br/>value = [9, 8]<br/>class = Clase 0>, fillcolor="#fcf1e9"] ;
636 -> 637 ;
638 [label=<Feature 2 &le; 260.5<br/>gini = 0.5<br/>samples = 8<br/>value = [4, 4]<br/>class = Clase 0>, fillcolor="#ffffff"] ;
637 -> 638 ;
639 [label=<gini = 0.5<br/>samples = 2<br/>value = [1, 1]<br/>class = Clase 0>, fillcolor="#ffffff"] ;
638 -> 639 ;
640 [label=<Feature 2 &le; 263.5<br/>gini = 0.5<br/>samples = 6<br/>value = [3, 3]<br/>class = Clase 0>, fillcolor="#ffffff"] ;
638 -> 640 ;
641 [label=<gini = 0.5<br/>samples = 2<br/>value = [1, 1]<br/>class = Clase 0>, fillcolor="#ffffff"] ;
640 -> 641 ;
642 [label=<Feature 2 &le; 266.5<br/>gini = 0.5<br/>samples = 4<br/>value = [2, 2]<br/>class = Clase 0>, fillcolor="#ffffff"] ;
640 -> 642 ;
643 [label=<gini = 0.5<br/>samples = 2<br/>value = [1, 1]<br/>class = Clase 0>, fillcolor="#ffffff"] ;
642 -> 643 ;
644 [label=<gini = 0.5<br/>samples = 2<br/>value = [1, 1]<br/>class = Clase 0>, fillcolor="#ffffff"] ;
642 -> 644 ;
645 [label=<Feature 2 &le; 272.5<br/>gini = 0.494<br/>samples = 9<br/>value = [5, 4]<br/>class = Clase 0>, fillcolor="#fae6d7"] ;
637 -> 645 ;
646 [label=<gini = 0.0<br/>samples = 1<br/>value = [1, 0]<br/>class = Clase 0>, fillcolor="#e58139"] ;
645 -> 646 ;
647 [label=<Feature 2 &le; 275.5<br/>gini = 0.5<br/>samples = 8<br/>value = [4, 4]<br/>class = Clase 0>, fillcolor="#ffffff"] ;
645 -> 647 ;
648 [label=<gini = 0.5<br/>samples = 2<br/>value = [1, 1]<br/>class = Clase 0>, fillcolor="#ffffff"] ;
647 -> 648 ;
649 [label=<Feature 2 &le; 278.5<br/>gini = 0.5<br/>samples = 6<br/>value = [3, 3]<br/>class = Clase 0>, fillcolor="#ffffff"] ;
647 -> 649 ;
650 [label=<gini = 0.5<br/>samples = 2<br/>value = [1, 1]<br/>class = Clase 0>, fillcolor="#ffffff"] ;
649 -> 650 ;
651 [label=<Feature 2 &le; 281.5<br/>gini = 0.5<br/>samples = 4<br/>value = [2, 2]<br/>class = Clase 0>, fillcolor="#ffffff"] ;
649 -> 651 ;
652 [label=<gini = 0.5<br/>samples = 2<br/>value = [1, 1]<br/>class = Clase 0>, fillcolor="#ffffff"] ;
651 -> 652 ;
653 [label=<gini = 0.5<br/>samples = 2<br/>value = [1, 1]<br/>class = Clase 0>, fillcolor="#ffffff"] ;
651 -> 653 ;
654 [label=<gini = 0.0<br/>samples = 1<br/>value = [1, 0]<br/>class = Clase 0>, fillcolor="#e58139"] ;
636 -> 654 ;
655 [label=<Feature 2 &le; 290.5<br/>gini = 0.494<br/>samples = 9<br/>value = [4, 5]<br/>class = Clase 1>, fillcolor="#d7ebfa"] ;
635 -> 655 ;
656 [label=<gini = 0.0<br/>samples = 1<br/>value = [0, 1]<br/>class = Clase 1>, fillcolor="#399de5"] ;
655 -> 656 ;
657 [label=<Feature 2 &le; 293.5<br/>gini = 0.5<br/>samples = 8<br/>value = [4, 4]<br/>class = Clase 0>, fillcolor="#ffffff"] ;
655 -> 657 ;
658 [label=<gini = 0.5<br/>samples = 2<br/>value = [1, 1]<br/>class = Clase 0>, fillcolor="#ffffff"] ;
657 -> 658 ;
659 [label=<Feature 2 &le; 296.5<br/>gini = 0.5<br/>samples = 6<br/>value = [3, 3]<br/>class = Clase 0>, fillcolor="#ffffff"] ;
657 -> 659 ;
660 [label=<gini = 0.5<br/>samples = 2<br/>value = [1, 1]<br/>class = Clase 0>, fillcolor="#ffffff"] ;
659 -> 660 ;
661 [label=<Feature 2 &le; 299.5<br/>gini = 0.5<br/>samples = 4<br/>value = [2, 2]<br/>class = Clase 0>, fillcolor="#ffffff"] ;
659 -> 661 ;
662 [label=<gini = 0.5<br/>samples = 2<br/>value = [1, 1]<br/>class = Clase 0>, fillcolor="#ffffff"] ;
661 -> 662 ;
663 [label=<gini = 0.5<br/>samples = 2<br/>value = [1, 1]<br/>class = Clase 0>, fillcolor="#ffffff"] ;
661 -> 663 ;
664 [label=<Feature 2 &le; 305.5<br/>gini = 0.469<br/>samples = 8<br/>value = [5, 3]<br/>class = Clase 0>, fillcolor="#f5cdb0"] ;
634 -> 664 ;
665 [label=<gini = 0.0<br/>samples = 2<br/>value = [2, 0]<br/>class = Clase 0>, fillcolor="#e58139"] ;
664 -> 665 ;
666 [label=<Feature 2 &le; 310.0<br/>gini = 0.5<br/>samples = 6<br/>value = [3, 3]<br/>class = Clase 0>, fillcolor="#ffffff"] ;
664 -> 666 ;
667 [label=<gini = 0.0<br/>samples = 1<br/>value = [0, 1]<br/>class = Clase 1>, fillcolor="#399de5"] ;
666 -> 667 ;
668 [label=<Feature 2 &le; 314.5<br/>gini = 0.48<br/>samples = 5<br/>value = [3, 2]<br/>class = Clase 0>, fillcolor="#f6d5bd"] ;
666 -> 668 ;
669 [label=<gini = 0.5<br/>samples = 2<br/>value = [1, 1]<br/>class = Clase 0>, fillcolor="#ffffff"] ;
668 -> 669 ;
670 [label=<Feature 2 &le; 319.0<br/>gini = 0.444<br/>samples = 3<br/>value = [2, 1]<br/>class = Clase 0>, fillcolor="#f2c09c"] ;
668 -> 670 ;
671 [label=<gini = 0.0<br/>samples = 1<br/>value = [1, 0]<br/>class = Clase 0>, fillcolor="#e58139"] ;
670 -> 671 ;
672 [label=<gini = 0.5<br/>samples = 2<br/>value = [1, 1]<br/>class = Clase 0>, fillcolor="#ffffff"] ;
670 -> 672 ;
673 [label=<gini = 0.0<br/>samples = 1<br/>value = [0, 1]<br/>class = Clase 1>, fillcolor="#399de5"] ;
633 -> 673 ;
674 [label=<gini = 0.0<br/>samples = 1<br/>value = [1, 0]<br/>class = Clase 0>, fillcolor="#e58139"] ;
632 -> 674 ;
675 [label=<gini = 0.0<br/>samples = 1<br/>value = [0, 1]<br/>class = Clase 1>, fillcolor="#399de5"] ;
631 -> 675 ;
676 [label=<Feature 2 &le; 335.5<br/>gini = 0.444<br/>samples = 6<br/>value = [4, 2]<br/>class = Clase 0>, fillcolor="#f2c09c"] ;
630 -> 676 ;
677 [label=<gini = 0.0<br/>samples = 1<br/>value = [1, 0]<br/>class = Clase 0>, fillcolor="#e58139"] ;
676 -> 677 ;
678 [label=<Feature 2 &le; 338.5<br/>gini = 0.48<br/>samples = 5<br/>value = [3, 2]<br/>class = Clase 0>, fillcolor="#f6d5bd"] ;
676 -> 678 ;
679 [label=<gini = 0.5<br/>samples = 2<br/>value = [1, 1]<br/>class = Clase 0>, fillcolor="#ffffff"] ;
678 -> 679 ;
680 [label=<Feature 2 &le; 341.5<br/>gini = 0.444<br/>samples = 3<br/>value = [2, 1]<br/>class = Clase 0>, fillcolor="#f2c09c"] ;
678 -> 680 ;
681 [label=<gini = 0.0<br/>samples = 1<br/>value = [1, 0]<br/>class = Clase 0>, fillcolor="#e58139"] ;
680 -> 681 ;
682 [label=<gini = 0.5<br/>samples = 2<br/>value = [1, 1]<br/>class = Clase 0>, fillcolor="#ffffff"] ;
680 -> 682 ;
683 [label=<Feature 2 &le; 347.5<br/>gini = 0.444<br/>samples = 3<br/>value = [1, 2]<br/>class = Clase 1>, fillcolor="#9ccef2"] ;
629 -> 683 ;
684 [label=<gini = 0.0<br/>samples = 1<br/>value = [0, 1]<br/>class = Clase 1>, fillcolor="#399de5"] ;
683 -> 684 ;
685 [label=<gini = 0.5<br/>samples = 2<br/>value = [1, 1]<br/>class = Clase 0>, fillcolor="#ffffff"] ;
683 -> 685 ;
686 [label=<Feature 2 &le; 353.5<br/>gini = 0.444<br/>samples = 3<br/>value = [2, 1]<br/>class = Clase 0>, fillcolor="#f2c09c"] ;
628 -> 686 ;
687 [label=<gini = 0.0<br/>samples = 1<br/>value = [1, 0]<br/>class = Clase 0>, fillcolor="#e58139"] ;
686 -> 687 ;
688 [label=<gini = 0.5<br/>samples = 2<br/>value = [1, 1]<br/>class = Clase 0>, fillcolor="#ffffff"] ;
686 -> 688 ;
689 [label=<gini = 0.0<br/>samples = 1<br/>value = [1, 0]<br/>class = Clase 0>, fillcolor="#e58139"] ;
627 -> 689 ;
690 [label=<Feature 2 &le; 374.5<br/>gini = 0.498<br/>samples = 17<br/>value = [8, 9]<br/>class = Clase 1>, fillcolor="#e9f4fc"] ;
626 -> 690 ;
691 [label=<Feature 2 &le; 371.5<br/>gini = 0.444<br/>samples = 3<br/>value = [1, 2]<br/>class = Clase 1>, fillcolor="#9ccef2"] ;
690 -> 691 ;
692 [label=<gini = 0.5<br/>samples = 2<br/>value = [1, 1]<br/>class = Clase 0>, fillcolor="#ffffff"] ;
691 -> 692 ;
693 [label=<gini = 0.0<br/>samples = 1<br/>value = [0, 1]<br/>class = Clase 1>, fillcolor="#399de5"] ;
691 -> 693 ;
694 [label=<Feature 2 &le; 377.5<br/>gini = 0.5<br/>samples = 14<br/>value = [7, 7]<br/>class = Clase 0>, fillcolor="#ffffff"] ;
690 -> 694 ;
695 [label=<gini = 0.5<br/>samples = 2<br/>value = [1, 1]<br/>class = Clase 0>, fillcolor="#ffffff"] ;
694 -> 695 ;
696 [label=<Feature 2 &le; 380.5<br/>gini = 0.5<br/>samples = 12<br/>value = [6, 6]<br/>class = Clase 0>, fillcolor="#ffffff"] ;
694 -> 696 ;
697 [label=<gini = 0.5<br/>samples = 2<br/>value = [1, 1]<br/>class = Clase 0>, fillcolor="#ffffff"] ;
696 -> 697 ;
698 [label=<Feature 2 &le; 383.5<br/>gini = 0.5<br/>samples = 10<br/>value = [5, 5]<br/>class = Clase 0>, fillcolor="#ffffff"] ;
696 -> 698 ;
699 [label=<gini = 0.5<br/>samples = 2<br/>value = [1, 1]<br/>class = Clase 0>, fillcolor="#ffffff"] ;
698 -> 699 ;
700 [label=<Feature 2 &le; 386.5<br/>gini = 0.5<br/>samples = 8<br/>value = [4, 4]<br/>class = Clase 0>, fillcolor="#ffffff"] ;
698 -> 700 ;
701 [label=<gini = 0.5<br/>samples = 2<br/>value = [1, 1]<br/>class = Clase 0>, fillcolor="#ffffff"] ;
700 -> 701 ;
702 [label=<Feature 2 &le; 389.5<br/>gini = 0.5<br/>samples = 6<br/>value = [3, 3]<br/>class = Clase 0>, fillcolor="#ffffff"] ;
700 -> 702 ;
703 [label=<gini = 0.5<br/>samples = 2<br/>value = [1, 1]<br/>class = Clase 0>, fillcolor="#ffffff"] ;
702 -> 703 ;
704 [label=<Feature 2 &le; 392.5<br/>gini = 0.5<br/>samples = 4<br/>value = [2, 2]<br/>class = Clase 0>, fillcolor="#ffffff"] ;
702 -> 704 ;
705 [label=<gini = 0.5<br/>samples = 2<br/>value = [1, 1]<br/>class = Clase 0>, fillcolor="#ffffff"] ;
704 -> 705 ;
706 [label=<gini = 0.5<br/>samples = 2<br/>value = [1, 1]<br/>class = Clase 0>, fillcolor="#ffffff"] ;
704 -> 706 ;
707 [label=<Feature 2 &le; 404.5<br/>gini = 0.219<br/>samples = 8<br/>value = [7, 1]<br/>class = Clase 0>, fillcolor="#e99355"] ;
625 -> 707 ;
708 [label=<gini = 0.0<br/>samples = 5<br/>value = [5, 0]<br/>class = Clase 0>, fillcolor="#e58139"] ;
707 -> 708 ;
709 [label=<Feature 2 &le; 407.5<br/>gini = 0.444<br/>samples = 3<br/>value = [2, 1]<br/>class = Clase 0>, fillcolor="#f2c09c"] ;
707 -> 709 ;
710 [label=<gini = 0.5<br/>samples = 2<br/>value = [1, 1]<br/>class = Clase 0>, fillcolor="#ffffff"] ;
709 -> 710 ;
711 [label=<gini = 0.0<br/>samples = 1<br/>value = [1, 0]<br/>class = Clase 0>, fillcolor="#e58139"] ;
709 -> 711 ;
712 [label=<Feature 2 &le; 413.5<br/>gini = 0.5<br/>samples = 42<br/>value = [21, 21]<br/>class = Clase 0>, fillcolor="#ffffff"] ;
624 -> 712 ;
713 [label=<gini = 0.0<br/>samples = 1<br/>value = [0, 1]<br/>class = Clase 1>, fillcolor="#399de5"] ;
712 -> 713 ;
714 [label=<Feature 2 &le; 449.5<br/>gini = 0.5<br/>samples = 41<br/>value = [21, 20]<br/>class = Clase 0>, fillcolor="#fef9f6"] ;
712 -> 714 ;
715 [label=<Feature 2 &le; 446.5<br/>gini = 0.495<br/>samples = 20<br/>value = [11, 9]<br/>class = Clase 0>, fillcolor="#fae8db"] ;
714 -> 715 ;
716 [label=<Feature 2 &le; 437.5<br/>gini = 0.499<br/>samples = 19<br/>value = [10, 9]<br/>class = Clase 0>, fillcolor="#fcf2eb"] ;
715 -> 716 ;
717 [label=<Feature 2 &le; 416.5<br/>gini = 0.5<br/>samples = 14<br/>value = [7, 7]<br/>class = Clase 0>, fillcolor="#ffffff"] ;
716 -> 717 ;
718 [label=<gini = 0.5<br/>samples = 2<br/>value = [1, 1]<br/>class = Clase 0>, fillcolor="#ffffff"] ;
717 -> 718 ;
719 [label=<Feature 2 &le; 419.5<br/>gini = 0.5<br/>samples = 12<br/>value = [6, 6]<br/>class = Clase 0>, fillcolor="#ffffff"] ;
717 -> 719 ;
720 [label=<gini = 0.5<br/>samples = 2<br/>value = [1, 1]<br/>class = Clase 0>, fillcolor="#ffffff"] ;
719 -> 720 ;
721 [label=<Feature 2 &le; 424.0<br/>gini = 0.5<br/>samples = 10<br/>value = [5, 5]<br/>class = Clase 0>, fillcolor="#ffffff"] ;
719 -> 721 ;
722 [label=<gini = 0.5<br/>samples = 2<br/>value = [1, 1]<br/>class = Clase 0>, fillcolor="#ffffff"] ;
721 -> 722 ;
723 [label=<Feature 2 &le; 428.5<br/>gini = 0.5<br/>samples = 8<br/>value = [4, 4]<br/>class = Clase 0>, fillcolor="#ffffff"] ;
721 -> 723 ;
724 [label=<gini = 0.5<br/>samples = 2<br/>value = [1, 1]<br/>class = Clase 0>, fillcolor="#ffffff"] ;
723 -> 724 ;
725 [label=<Feature 2 &le; 431.5<br/>gini = 0.5<br/>samples = 6<br/>value = [3, 3]<br/>class = Clase 0>, fillcolor="#ffffff"] ;
723 -> 725 ;
726 [label=<gini = 0.5<br/>samples = 2<br/>value = [1, 1]<br/>class = Clase 0>, fillcolor="#ffffff"] ;
725 -> 726 ;
727 [label=<Feature 2 &le; 434.5<br/>gini = 0.5<br/>samples = 4<br/>value = [2, 2]<br/>class = Clase 0>, fillcolor="#ffffff"] ;
725 -> 727 ;
728 [label=<gini = 0.5<br/>samples = 2<br/>value = [1, 1]<br/>class = Clase 0>, fillcolor="#ffffff"] ;
727 -> 728 ;
729 [label=<gini = 0.5<br/>samples = 2<br/>value = [1, 1]<br/>class = Clase 0>, fillcolor="#ffffff"] ;
727 -> 729 ;
730 [label=<Feature 2 &le; 440.5<br/>gini = 0.48<br/>samples = 5<br/>value = [3, 2]<br/>class = Clase 0>, fillcolor="#f6d5bd"] ;
716 -> 730 ;
731 [label=<gini = 0.0<br/>samples = 1<br/>value = [1, 0]<br/>class = Clase 0>, fillcolor="#e58139"] ;
730 -> 731 ;
732 [label=<Feature 2 &le; 443.5<br/>gini = 0.5<br/>samples = 4<br/>value = [2, 2]<br/>class = Clase 0>, fillcolor="#ffffff"] ;
730 -> 732 ;
733 [label=<gini = 0.5<br/>samples = 2<br/>value = [1, 1]<br/>class = Clase 0>, fillcolor="#ffffff"] ;
732 -> 733 ;
734 [label=<gini = 0.5<br/>samples = 2<br/>value = [1, 1]<br/>class = Clase 0>, fillcolor="#ffffff"] ;
732 -> 734 ;
735 [label=<gini = 0.0<br/>samples = 1<br/>value = [1, 0]<br/>class = Clase 0>, fillcolor="#e58139"] ;
715 -> 735 ;
736 [label=<Feature 2 &le; 461.5<br/>gini = 0.499<br/>samples = 21<br/>value = [10, 11]<br/>class = Clase 1>, fillcolor="#edf6fd"] ;
714 -> 736 ;
737 [label=<Feature 2 &le; 455.5<br/>gini = 0.444<br/>samples = 6<br/>value = [2, 4]<br/>class = Clase 1>, fillcolor="#9ccef2"] ;
736 -> 737 ;
738 [label=<Feature 2 &le; 452.5<br/>gini = 0.5<br/>samples = 4<br/>value = [2, 2]<br/>class = Clase 0>, fillcolor="#ffffff"] ;
737 -> 738 ;
739 [label=<gini = 0.5<br/>samples = 2<br/>value = [1, 1]<br/>class = Clase 0>, fillcolor="#ffffff"] ;
738 -> 739 ;
740 [label=<gini = 0.5<br/>samples = 2<br/>value = [1, 1]<br/>class = Clase 0>, fillcolor="#ffffff"] ;
738 -> 740 ;
741 [label=<gini = 0.0<br/>samples = 2<br/>value = [0, 2]<br/>class = Clase 1>, fillcolor="#399de5"] ;
737 -> 741 ;
742 [label=<Feature 2 &le; 473.5<br/>gini = 0.498<br/>samples = 15<br/>value = [8, 7]<br/>class = Clase 0>, fillcolor="#fcefe6"] ;
736 -> 742 ;
743 [label=<Feature 2 &le; 470.5<br/>gini = 0.49<br/>samples = 7<br/>value = [4, 3]<br/>class = Clase 0>, fillcolor="#f8e0ce"] ;
742 -> 743 ;
744 [label=<Feature 2 &le; 464.5<br/>gini = 0.5<br/>samples = 6<br/>value = [3, 3]<br/>class = Clase 0>, fillcolor="#ffffff"] ;
743 -> 744 ;
745 [label=<gini = 0.5<br/>samples = 2<br/>value = [1, 1]<br/>class = Clase 0>, fillcolor="#ffffff"] ;
744 -> 745 ;
746 [label=<Feature 2 &le; 467.5<br/>gini = 0.5<br/>samples = 4<br/>value = [2, 2]<br/>class = Clase 0>, fillcolor="#ffffff"] ;
744 -> 746 ;
747 [label=<gini = 0.5<br/>samples = 2<br/>value = [1, 1]<br/>class = Clase 0>, fillcolor="#ffffff"] ;
746 -> 747 ;
748 [label=<gini = 0.5<br/>samples = 2<br/>value = [1, 1]<br/>class = Clase 0>, fillcolor="#ffffff"] ;
746 -> 748 ;
749 [label=<gini = 0.0<br/>samples = 1<br/>value = [1, 0]<br/>class = Clase 0>, fillcolor="#e58139"] ;
743 -> 749 ;
750 [label=<Feature 2 &le; 476.5<br/>gini = 0.5<br/>samples = 8<br/>value = [4, 4]<br/>class = Clase 0>, fillcolor="#ffffff"] ;
742 -> 750 ;
751 [label=<gini = 0.5<br/>samples = 2<br/>value = [1, 1]<br/>class = Clase 0>, fillcolor="#ffffff"] ;
750 -> 751 ;
752 [label=<Feature 2 &le; 479.5<br/>gini = 0.5<br/>samples = 6<br/>value = [3, 3]<br/>class = Clase 0>, fillcolor="#ffffff"] ;
750 -> 752 ;
753 [label=<gini = 0.5<br/>samples = 2<br/>value = [1, 1]<br/>class = Clase 0>, fillcolor="#ffffff"] ;
752 -> 753 ;
754 [label=<Feature 2 &le; 484.0<br/>gini = 0.5<br/>samples = 4<br/>value = [2, 2]<br/>class = Clase 0>, fillcolor="#ffffff"] ;
752 -> 754 ;
755 [label=<gini = 0.5<br/>samples = 2<br/>value = [1, 1]<br/>class = Clase 0>, fillcolor="#ffffff"] ;
754 -> 755 ;
756 [label=<gini = 0.5<br/>samples = 2<br/>value = [1, 1]<br/>class = Clase 0>, fillcolor="#ffffff"] ;
754 -> 756 ;
757 [label=<gini = 0.0<br/>samples = 5<br/>value = [5, 0]<br/>class = Clase 0>, fillcolor="#e58139"] ;
623 -> 757 ;
758 [label=<Feature 2 &le; 581.5<br/>gini = 0.5<br/>samples = 101<br/>value = [50, 51]<br/>class = Clase 1>, fillcolor="#fbfdfe"] ;
622 -> 758 ;
759 [label=<Feature 2 &le; 512.5<br/>gini = 0.474<br/>samples = 44<br/>value = [17, 27]<br/>class = Clase 1>, fillcolor="#b6dbf5"] ;
758 -> 759 ;
760 [label=<Feature 2 &le; 503.5<br/>gini = 0.32<br/>samples = 5<br/>value = [1, 4]<br/>class = Clase 1>, fillcolor="#6ab6ec"] ;
759 -> 760 ;
761 [label=<gini = 0.5<br/>samples = 2<br/>value = [1, 1]<br/>class = Clase 0>, fillcolor="#ffffff"] ;
760 -> 761 ;
762 [label=<gini = 0.0<br/>samples = 3<br/>value = [0, 3]<br/>class = Clase 1>, fillcolor="#399de5"] ;
760 -> 762 ;
763 [label=<Feature 2 &le; 578.5<br/>gini = 0.484<br/>samples = 39<br/>value = [16, 23]<br/>class = Clase 1>, fillcolor="#c3e1f7"] ;
759 -> 763 ;
764 [label=<Feature 2 &le; 542.5<br/>gini = 0.488<br/>samples = 38<br/>value = [16, 22]<br/>class = Clase 1>, fillcolor="#c9e4f8"] ;
763 -> 764 ;
765 [label=<Feature 2 &le; 524.5<br/>gini = 0.499<br/>samples = 19<br/>value = [9, 10]<br/>class = Clase 1>, fillcolor="#ebf5fc"] ;
764 -> 765 ;
766 [label=<Feature 2 &le; 521.5<br/>gini = 0.49<br/>samples = 7<br/>value = [3, 4]<br/>class = Clase 1>, fillcolor="#cee6f8"] ;
765 -> 766 ;
767 [label=<Feature 2 &le; 515.5<br/>gini = 0.5<br/>samples = 6<br/>value = [3, 3]<br/>class = Clase 0>, fillcolor="#ffffff"] ;
766 -> 767 ;
